svm_type c_svc
kernel_type rbf
gamma 0.0078125
nr_class 98
total_sv 504
rho -54.1758 -25.5735 34.3591 2.9037 3.85693 -0.0914369 -0.0460921 -3.91117 0 -3.69678 -0.276134 -0.391011 0 0 62.0052 0.404706 -10.8534 -9.8006 -33.073 -20.7715 -18.8589 -53.8719 -38.3873 -44.7885 9.27083 -29.0906 -0.362504 -1.21325 -37.311 -38.1682 -2.8673 -47.3019 -26.1668 -62.1366 -4.32404 7.22279 -54.0871 -12.0489 -26.4895 -3.35425 -5.69357 -6.48443 34.8826 -0.700173 -53.0744 -46.5936 30.4936 8.23226 6.77187 4.11649 -0.999518 -1.47388 -0.658696 -0.840908 -0.391011 -0.324029 0 -0.999529 -25.0565 -0.324029 -0.00545741 -1.11022e-015 -0.236735 0.519531 50.027 -30.364 -13.8916 12.8846 1.13687e-013 -1.03029e-013 -6.65705 -18.0921 -14.0029 -15.8424 -36.7004 -0.253937 -3.90883 -2.42396 0.138673 -0.156305 -0.575914 19.2678 -0.0881242 -1.57203 -21.0735 0 -7.10543e-015 -29.0903 -0.0337487 -1.24345e-014 -0.0158839 -0.0289567 -0.033748 -0.0304765 -0.00545741 -4.55191e-015 -9.65894e-015 9.01978 43.7734 9.09495e-013 -0.474948 -7.10543e-015 0 0.624999 0 0.369603 0.523805 0.844481 0 0 45.5309 0.301061 50.7553 1.90356 36.0951 49.5066 19.8486 19.26 54.4842 -2.41235 55.3492 1.36592 3.30191 -0.0647901 2.11041 52.9234 34.0632 14.2429 37.2526 7.84664 1.77599 13.9752 40.3481 2.08042 5.71729 -0.517365 0 0.525106 11.5657 3.10129 0 21.184 71.8392 0.00952148 15.5709 1.44782 0 1.67378 1.71042 0 0 1.35855 -0.678206 0.515137 28.0074 1.35855 -0.00848648 -0.00350973 9.09495e-013 -5.61571 51.5364 -2.44458 18.9043 10.3496 -2.35881 -1.21094 -0.744321 -1.09793 0.471081 0.145106 0 -0.0663025 0 0 -0.100937 -0.0348368 0 4.11172 0 85.1479 -8.08911 0 -0.213945 0 -0.0655631 -0.145748 -0.110086 -0.0846623 -0.0508186 -0.0389423 -0.00848648 2.66454e-015 -2.88658e-015 43.6397 -0.465952 -0.350871 -0.199136 -0.145698 0.625097 -0.0846392 0.738015 0.212575 0.802182 -0.0143269 -0.00852627 46.2751 0 66.1411 -1.23951 14.5135 28.3119 22.909 41.2666 44.771 4.64637 63.7698 1.36586 3.35128 0.028393 17.7222 53.1631 14.8005 0.914343 34.7302 -1.42427 12.8731 27.9772 27.2258 1.07559 19.0353 0.0866083 0 0.934546 17.3647 3.11226 -0.000291517 30.6609 49.2373 -0.999756 22.2852 0.0289442 0 1.61304 1.93954 0.906476 0 1.35852 -0.23675 -0.0419528 30.0876 1.35866 0 0 -0.465985 -0.999519 35.9352 4.64653 19.2347 0.768624 -0.575892 -0.363893 0.577896 0 1.84894 0 0.719846 -0.00261308 0.0396079 0 -0.046225 0 0 3.65125 0 42.6435 -6.67227 -0.0143269 -0.091461 0.731523 8.9706e-014 -2.84217e-014 0 0 0 5.68434e-014 0 0 0 0.516113 -0.0888737 1.13687e-013 0 -2.81346 0 -2.81365 0.596619 0.26593 0 0 25.3994 0.381658 9.23993 -35.9823 0.943867 -5.35581 -30.5034 -49.3219 -23.2054 -22.0621 1.00168 -17.425 7.61234 -1.13871 -19.9657 -1.89274 5.23921 -16.1504 -55.088 -82.5023 -44.7831 -25.5001 -18.9659 -10.0341 -43.0582 -5.5631 5.61399 -4.34871 9.47047 7.13889 -27.8804 -26.2642 35.362 -0.171321 0.836007 21.7588 7.10543e-015 2.5168 1.16191 -2.81351 5.68434e-014 0.388225 -4.06064 -1.93213 2.95435 0.388331 0 0 -0.516113 -21.8855 47.0512 -31.4725 -9.19702 3.27283 -22.03 -8.9385 -10.6664 -26.8411 -7.68996 5.57835 -17.4247 -0.287183 -0.992505 -0.810679 -0.827288 -0.158406 -1.77636e-014 25.5619 -0.088374 0 -16.7251 0 -1.31172 -17.4244 0 -0.105304 0 0 0 0 0 0 0 -22.0224 -5.82178 -6.71445 -17.2303 9.87484 10.5175 11.6486 35.5852 0 0 36.4841 14.0013 44.9338 0.601865 28.9486 3.37389 -11.8313 -2.92723 -0.721192 -23.7743 3.18015 0.892506 -13.314 -23.5802 28.6131 31.4852 24.7938 -20.5041 -0.243699 0.00153327 -3.65946 3.35895 1.54941 -41.1248 -26.5154 -64.4404 13.1551 -48.5931 8.78167 -9.52743 -1.17593 39.0909 102.242 49.2709 -6.78909 24.1812 -0.409004 31.1514 85.0741 43.0981 -19.096 50.5413 -31.9343 0.575805 33.5187 50.5394 -0.0200215 0 -1 -5.68002 50.8292 -18.9535 1.49922 14.6924 -11.8313 -28.8149 5.54265 -28.8149 34.9161 10.5834 -20.7203 -2.87022 -8.51764 -3.67069 -19.532 -0.631489 -0.373306 51.2628 -0.112196 1.34411 0 0 -25.2904 -27.7825 1.66271 5.68434e-014 -0.247057 -0.377188 -0.400029 -0.35002 -0.0200215 0 0 2.1291 -1.96729 -16.0933 -4.34741 4.55242 11.8471 9.97833 -1.20356 -0.994244 64.3034 0.769384 40.0853 -1.71823 52.1131 -7.82585 -2.84557 -17.0068 0.941236 -12.765 0.439701 -39.1691 -16.7091 -25.8285 14.7769 61.8655 23.444 46.3361 6.23679 -29.6193 34.1091 27.0957 74.9965 23.3744 32.934 -4.79185 57.2137 -36.0775 39.197 -9.29132 -8.94499 67.8487 108.31 26.9705 25.6042 26.4893 3.97904e-013 24.9553 79.2602 41.7803 -32.5818 39.5654 1.21907 -0.13184 13.7035 39.5689 -0.180791 -0.235536 -1.4834 46.9736 54.7239 28.4286 4.81556 47.4419 -1.02493 -6.02789 -8.02297 -1.97665 24.4717 31.0348 -16.3022 -6.7371 23.3438 -1.96729 9.49456 0 2.27374e-013 39.6023 -0.135977 -22.03 -0.0461257 -1.20356 -16.8491 -12.5951 1.26986 -0.136216 -0.136141 -0.000199677 4.26326e-014 -3.55271e-014 -0.180791 -0.262758 -0.271853 -3.89575 12.765 -8.42355 21.4404 -4.77666 0.0504039 -2.44897 -2.9314 96.6174 33.926 8.93598 0.27431 15.3741 3.05972 -1.42109e-014 30.7297 32.2416 -6.20137 23.554 20.9322 9.42507 0 -26.0004 31.268 13.7071 0.701986 8.52651e-014 0.00173589 4.72574 58.4275 30.1718 -0.255408 2.43221 0.482399 0.425333 -5.78378 38.2926 3.73226 0 5.64138 60.7828 45.7887 10.6817 9.85485 0 -2.44897 19.8478 49.9506 0.0240236 35.1594 0 0.236719 16.5745 14.9794 -13.9526 -10.593 -1.98952e-013 0.835844 30.4432 -0.508282 0.342312 0.745229 -1.42109e-014 0 19.8996 0 42.9174 0.258653 -0.00185425 0 0 0 25.7497 0 0 11.0628 0 0.821488 0 -2.44897 -0.476322 -0.476243 34.5477 -0.995461 -1.96628 -3.12285 -6.2492 -8.43564 -13.9526 -6.27515 -2.27374e-013 2.4375 0 2.25217 1.24908 1.51511 0 0 39.3849 1.29355 6.49801 0.194357 16.7295 8.67237 0 9.99868 10.7286 8.91013 10.5201 4.27072 11.3806 0.360638 36.3845 26.7245 42.5898 0.666179 0 0.00172432 4.04735 16.9311 16.7805 0.32678 2.25619 0.00357113 0.452872 3.50693 10.7569 8.80889 0 31.4937 38.4148 23.9124 1 1.66508 0 2.32894 4.98878 4.0225 0.0023766 4.09602 0 0.152062 6.89921 4.09602 0 0 0 4.8396 1 8.91013 3.33862 0.758018 0 0 13.1802 0 10.6579 0.278002 0.949683 0 0.239101 0 1.26982 0 0 7.77442 0 0.669622 0 0 0 0.802496 0.486779 0 0 0 0 0 0 0 0 2.89746 18.7165 -4.69049 -0.860529 -7.74561 -4.854 34.8868 36.0137 36.9228 -0.930333 34.7166 2.12126 9.56773 -46.1584 0.950495 0.195817 3.04116 -7.04569 -6.10879 -45.9027 3.66725 44.0675 15.796 5.95191 -2.72835 -1.49176 -11.358 -39.0591 0.733952 15.2219 -40.3868 -24.9524 42.7561 -46.2515 -14.0528 13.8798 0.037452 57.7425 78.9663 48.666 23.6812 56.0166 -0.0462636 6.0937 63.5243 68.2522 -44.3263 54.8458 -4.21872 0.091539 2.0082 35.0602 -0.950702 -0.544101 -0.995658 58.5414 38.674 -18.6558 13.9144 50.5368 -2.99888 -5.52076 -8.86283 11.4176 51.2039 53.1964 18.6216 -5.50782 -13.137 -6.43915 -7.96048 -0.587585 -0.0109805 56.1851 -0.497112 -1.13687e-013 -0.287166 -7.74561 -17.3497 30.5013 16.8523 -5.68434e-014 -2.13163e-014 -0.00273068 -0.95055 -1.22137 -0.950702 -0.00238754 -5.15143e-014 33.7088 1.01754 10.6945 -3.41718 -2.36063 25.0273 30.4055 3.81352 0.100399 3.38157 7.62005 -1.42109e-014 21.178 28.2348 -8.67041 29.169 1.73219 -0.0430417 -25.0598 0.259754 29.4993 9.70133 -0.565855 0 0.00172741 1.88612 31.599 32.0311 -1.66262 -3.64911 -8.30939 0.00848143 -0.155138 20.0344 2.40979 0 7.84185 42.8267 59.3194 20.7801 -6.22914 -0.0467498 4.8384 59.1324 85.2584 0 74.331 1.13687e-013 0.0460856 2.16831 50.255 -1.42109e-014 0 2.13163e-014 5.66991 41.3743 0.0530769 -31.4785 0.728211 -1.42109e-014 1.42109e-014 0.672423 0 65.7684 0 -19.0032 -0.331567 -0.0301215 -0.16849 27.6946 0 -0.0315129 68.7327 0 0.471624 -1.77636e-015 -3.41718 -0.487038 -19.5708 18.127 5.68434e-014 -3.55271e-014 5.68434e-014 -0.136204 -0.136142 -1.42109e-014 -0.137063 -0.26761 -4.06396 -4.30098 -4.33081 -2.59554 23.8592 -2.75456 32.2903 -0.78608 25.0221 8.31877 9.54265 -37.2775 -1.53211 -43.4712 0.736342 0.849852 -9.33195 -45.1809 10.6801 39.7488 6.58679 -16.1703 -2.04644 -1.1154 -52.5629 -31.7388 11.0717 -19.6113 -41.8946 -63.6963 14.8482 -31.7386 -13.502 38.9125 -3.55271e-015 5.27318 61.6371 25.9204 -4.14621 30.002 -0.19315 22.0113 45.5911 33.4927 -7.04506 14.7609 9.16724 -0.433488 13.0734 12.168 0 0 -0.995065 6.81676 7.26165 -20.4846 2.43252 51.9046 -2.11822 -3.28967 -20.4974 14.1237 15.079 45.4154 3.12514 -3.28338 -9.40241 -8.08398 -36.8576 -0.898294 -0.161681 44.4397 -0.390936 1.41654 -0.43338 -4.33081 -19.4126 17.6704 1.28385 -0.431993 -0.432822 -0.437029 -0.99947 -1.4834 0 0 0 15.7593 2.84217e-014 3.55271e-014 4.65035 18.0889 -6.02038 -0.913155 -11.8266 6.37833 0.480744 -41.0203 1.6762 3.33489 -5.25437 5.11792 12.1925 -47.592 4.27433 -11.9015 3.31749 -32.2294 -2.08868 -1.60744 -51.8058 -8.38808 8.08879 -53.1796 -45.6054 -32.5075 -14.2567 -9.27526 -9.67647 0.545388 -0.369534 13.0787 11.1569 10.2859 -6.82346 4.6096 0 31.9914 68.8111 5.79336 -28.7242 44.0753 -7.76566 -1.04569e-014 -1.24268 44.0765 -2.13163e-014 1.77636e-014 -0.690101 -1.75277 -2.82596 -13.553 -15.7985 17.4086 -1.72515 -2.27459 -17.7878 0.00693689 -8.98091 7.84538 -15.1601 -2.08868 -23.0737 -6.05362 -26.0692 -0.659936 0 73.09 -0.344281 -0.404951 -0.31529 2.84217e-014 -7.94399 -6.02744 9.87125 0 0 7.10543e-015 -1.06581e-014 -3.55271e-015 -2.13163e-014 1.06581e-014 7.10543e-015 0 -1.98952e-013 3.37681 3.39262 -32.1081 -1.01025 -32.2478 7.73095 0.73695 -44.9807 -3.84677 -9.73118 -0.14723 -17.2988 11.0605 -64.5498 -1.62883 -0.0318458 -16.5299 -40.4053 -2.21159 -1.73175 -67.3126 -30.859 -7.51854 -55.609 -61.3206 -40.3533 -13.76 -23.0255 -19.4601 5.45824 -0.0660188 0.835956 -7.21037 -3.05129 -0.718565 13.896 0 14.354 51.2821 6.27619 -12.6632 33.6534 -21.9796 -0.439112 -1.96197 30.1206 3.90799e-014 -3.90799e-014 -0.986376 -29.4426 -16.2536 -7.90908 -32.3127 6.41281 -1.71094 -2.11037 -24.2579 -0.698674 -13.2206 0.918644 -29.1406 -2.89665 -33.1307 -17.5028 -35.9273 -0.86751 0 50.488 -0.572209 -0.265999 -0.474262 0 -4.80103 -21.2394 18.9142 -0.09287 1.06581e-014 -1.06581e-014 -1.20792e-013 4.61853e-014 3.90799e-014 -4.9738e-014 -7.10543e-015 0 16.1458 18.9816 1.06914 0 0.221409 3.8999 0 2.82581 5.01897 2.23672 2.5712 6.94989 24.9006 0 10.9712 5.71972 15.7097 0 0 0.00172532 1.43779 6.19628 2.35825 0 0.190896 1.085 0.393298 0.324029 14.6878 2.93311 0 11.2608 6.16293 23.9124 7.74561 5.78882 0 1 35.5354 40.183 0.0355435 44.1393 0 0 0.276929 11.5375 0 0 0 0.995884 3.5714 6.11854 0 0.508767 0 0 9.05054 0 18.9807 0.198236 0 0 0 0 8.12634 0 0 25.5632 0 0.219931 0 0 0 0 19.5708 0 0 0 0 0 0 0 0 9.03772 15.9276 0.868998 0 0 3.8999 0 2.01743 3.5358 1.68631 1.88088 3.17249 17.4227 0 10.0054 4.00775 15.2778 0 0 0.00172361 1.26955 4.08002 1.21065 0 0 0.611676 0.318954 0.276144 11.0851 3.8999 0 6.68154 4.42673 19.6116 4.854 1 0 1.48315 35.0569 41.9843 0.0023766 40.3743 0 0 0.209057 5.5364 0 0 0 0.759844 2.79062 4.21193 0 0.470625 0 0 8.08398 0 19.424 0.171413 0 0 0 0 1 0 0 11.7637 0 0.199138 0 0 0 0 18.1272 0 0 0 0 0 0 0 0 33.0964 12.698 -36.2195 -18.2363 0.336928 -63.7654 -88.6768 -63.8497 -49.565 -49.2815 -79.0606 -71.5767 -16.0589 -30.0555 -2.94978 -16.7715 12.0298 -65.2018 -56.042 -54.6032 -67.3301 -18.4119 40.4454 -48.6137 -39.7845 54.0846 -99.3206 -56.9521 -29.4151 -13.0499 2.95758 14.2359 -8.17203 -48.1669 22.6756 -0.98359 -0.220622 45.9285 51.8262 -22.4609 15.0507 -6.61779 -41.1573 -21.2656 -2.86343 -5.87487 -4.11904 -35.4312 -0.830158 6.54336 -55.2896 -22.1926 0.408862 -39.7355 -39.2581 -43.1571 -96.9999 31.7005 16.4873 -28.0881 -1 2.13789 -14.805 -12.3175 -0.0474858 -0.836049 30.799 -0.33345 -3.83569 -35.4546 -16.1446 -32.0736 -15.7331 -10.7398 -29.7436 -25.8142 -22.4172 -16.6969 -14.2113 -5.87487 -2.48913 9.9476e-014 -1.47388 -0.34279 -29.0906 -7.81995 -0.588811 -5.15591 2.9751 -26.7159 0.851892 -27.3965 -15.0576 -57.0246 -18.799 7.07061 7.17618 5.5274 -0.381728 -0.241378 36.7853 -4.52394 -5.48557 20.8394 -12.5065 -38.8757 28.4928 -0.0760023 17.0896 -40.0323 -0.11361 35.6439 24.7467 20.604 0.512766 -22.7105 0 -37.3815 52.4001 33.5137 0.815256 14.6667 -0.0181905 0 0 22.8676 -5.34741 -4.86401 -0.493787 -8.35892 30.7768 -15.8769 -56.9668 2.1045 -0.588837 -0.729802 -61.715 -0.730008 27.9872 0.405933 -20.9936 -2.91626 11.5376 7.10543e-015 8.59524 2.13163e-014 0 12.4694 0 0.0722878 -0.110807 -18.982 -1.65279 -27.1914 -9.55686 0 2.84217e-014 2.84217e-014 -1.7053e-013 -3.41061e-013 -5.34741 -3.41479 -0.999756 -40.3192 -13.6314 -28.0983 -36.8188 -86.5017 -30.7212 -12.9092 -11.1196 -49.3055 -9.37816 -30.0764 -20.6455 -11.1133 -17.8828 -23.6395 -62.5103 -105.453 -57.5579 -43.5472 -42.795 22.4599 -32.7479 -27.2039 34.6419 -51.6893 -3.99116 -39.364 -17.0779 4.24288 33.0595 -29.5384 -34.5643 43.0905 0 23.3362 84.7386 23.7972 -31.4745 17.0202 -26.9926 -46.7801 -21.1638 17.0202 -0.75964 -0.664178 -20.4317 -9.54356 -4.06424 -48.6734 -10.1194 -4.33091 -52.4072 -55.9624 -52.1071 -78.9678 1.73492 34.0162 -16.1115 -9.9476e-014 2.08451 -18.8617 -45.0256 -0.274266 0 65.8872 -0.199309 49.0253 -13.0228 -1.06923 -37.4325 0.679078 -1.65736 -2.5412 -2.18905 -1.89931 -1.45139 -1.27467 -0.75964 -0.578241 -0.429486 -3.95935 34.332 2.68212 10.4913 5.54802 4.64575 24.6533 2.99715 3.35173 0.028393 17.7209 5.79065 14.8009 1.83269 9.96167 -5.18757 3.83731 -0.481201 22.4455 1.07545 27.6038 0.151921 0 1.05641 0.954849 3.11157 0 30.6609 47.4232 3.96625 21.4668 0.0289034 0 1.61261 1.93914 0.906408 0 1.4168 -7.72715e-014 -4.09447 30.5316 1.4168 -0.0580365 -0.0510785 -0.601886 0.00693689 38.1091 4.64575 16.0816 -2.93164 0 -5.68434e-014 0.577896 0.363865 1.84859 0.0762617 0.71998 0 0.0396079 0 0.120874 0 0 3.65147 0 28.3853 -4.48729 0 0 0.731481 -0.126555 -0.199456 -0.169772 -0.145964 -0.110463 -0.0966744 -0.0580365 -0.0449249 -0.034242 -5.35306 -47.7374 -99.073 -68.5624 -50.6246 -12.9196 -56.9839 0.715776 -27.3322 -8.03909 23.329 -8.56577 -46.9415 -12.2393 -85.9437 -92.4755 -39.3686 -23.1128 -49.1772 -41.7906 -68.0382 -38.7095 -31.9 35.1983 10.4951 -43.603 -21.6312 50.7239 -8.28692 -11.2778 16.8445 -1.47388 33.094 52.5709 -22.0773 -6.00361 51.7396 -37.9603 -4.15899 -14.1387 51.7397 -0.43017 -0.304295 -13.8484 -24.8994 37.257 -22.1831 -21.6856 -0.732343 -9.65518 -12.5426 -5.53551 -98.5121 0.00917601 -35.8799 -48.5558 -1.12628 -43.1279 -22.4746 -17.6348 -0.384617 -0.992984 42.0498 -0.388556 4.76957 -1.80406 -0.221283 -15.4306 -42.9295 -2.23669 -6.76392 -4.43156 -3.06069 -1.68618 -1.29238 -0.43017 -0.197868 -0.0284199 -4.83231 -22.0022 -41.3626 -30.8704 16.6218 -60.8016 20.6511 -11.4915 21.6264 11.4096 -1.04411 21.7166 -39.4057 -87.0153 -17.1507 11.9192 56.0196 2.99711 -7.48568 2.8817 -0.73693 -5.7138 40.2639 -7.32627 -6.24648 -0.951635 -0.907404 -1.08285 -1.23656 -0.87979 -2.0805 -12.1115 18.3724 10.3986 -34.0618 3.12901 -4.81297 -16.0605 -6.69734 -10.6657 -5.8274 -3.89618 -12.9579 -0.977398 20.415 15.2712 -1.22788 -0.366419 -3.89575 -5.82666 -1.0878 -12.4441 -0.909256 10.3631 -1.91941 -9.31396 -9.27378 -21.3765 -3.37835 -0.999377 -0.993814 21.9414 3.19744e-014 -2.92586 -13.0717 -3.8999 -5.82666 -7.30276 -4.93212 -12.5558 -11.1105 -8.70205 -1.07992 -3.89613 -5.8274 -1.00008 -0.465969 -36.3659 -8.55092 -13.6664 1.87383 -23.7664 0.776437 -2.0282 -16.8075 33.7523 0.892497 2.17791 -15.4748 -65.3095 -2.81939 -2.65773 0.84333 2.8934 -1.46104 -13.7304 -4.50085 -24.331 51.4522 -0.555216 -23.3937 4.54236 29.6621 19.1756 35.9529 7.24184 -0.288083 1.00798 -1.50447 -9.54477 -0.736953 -0.583251 0 -2.72076 18.4107 -0.583251 1.77636e-015 0 -0.458221 -1.46606 51.9534 5.24941 25.8607 13.9529 -1.00016 -1.7053e-013 -22.0535 -13.1656 -30.0422 21.8065 -28.8935 -0.309885 -9.56944 -4.80946 0.196086 -0.190743 -0.199102 25.4602 -0.128047 14.9551 -3.89307 -9.76996e-015 -2.84217e-014 -24.5656 0 -0.110184 -0.0198946 3.55271e-015 -1.77636e-015 3.37508e-014 1.77636e-015 0 0 4.33762 23.0606 48.1499 -35.069 -4.20552 2.42376 56.4302 73.7811 72.9504 11.705 -5.27403 -56.3723 8.23937 54.3253 97.6644 7.98739 3.52974 40.2212 43.4046 -30.2289 80.4989 28.9186 -0.448823 54.3518 102.969 29.6417 48.6619 70.8496 -7.10543e-015 73.8795 89.0302 56.9472 -0.427032 51.4158 20.9067 -2.99794 28.9593 51.4158 -1.18101 -0.992578 -6.61972 29.5055 75.2323 44.4214 25.3648 38.3867 -4.48734 -1.64215 10.5285 -6.41282 47.1441 14.3079 17.8225 -1.4834 15.7661 -2.02851 34.9906 7.10543e-015 7.10543e-015 53.6308 3.55271e-015 57.0505 -0.997534 -2.8264 -1.88357 24.8013 -4.2587 -5.76709 -9.35093 -5.95775 -3.23666 -2.55377 -1.18101 -0.835294 -0.587409 11.7567 10.8759 -29.108 30.0616 16.6016 65.4615 9.77059 61.6585 8.41642 -8.29305 -64.5236 -5.21259 28.4187 73.3011 24.9788 -3.29077 49.0357 33.7231 -3.23353 70.8245 46.3905 -3.41382 0.0013828 67.7086 5.20395 10.1335 53.6908 -0.998537 60.0257 73.5993 26.0887 -1.0581 21.9557 -5.95115 -13.1761 -3.62076 21.9556 -1.65929 -1.39681 -10.49 -0.856788 43.3644 3.052 -1.02808 22.4144 -4.86401 -3.41479 -3.66525 -15.1107 28.6287 -1.11452 -3.17395 -10.0159 -4.76489 -9.9712 12.8985 -0.744398 -0.507034 48.9732 0 40.1723 -0.91349 -5.01951 -2.4507 -3.65222 -5.92903 -6.70483 -11.4578 -8.28489 -4.51365 -3.56691 -1.65929 -1.17736 -0.83119 21.3878 -38.3317 23.6968 -7.79908 40.4954 56.6567 32.9951 -3.2741 2.90142 -20.4613 -0.229058 20.3011 24.3324 -0.998047 -1.65369 -0.815908 25.9328 -5.41041 22.1094 7.17543 -16.1187 31.4803 63.1486 48.5132 46.2374 13.4024 -2.02261 4.60236 60.7906 19.3715 1.27713 50.5458 -5.03174 -1.66527 19.8704 50.5454 -0.251464 -0.330513 -3.49256 -0.356511 35.1086 11.8348 -0.0600593 12.2181 -21.467 -22.4285 32.1585 -12.53 38.6962 2.39113 -3.75411 -2.93408 -1.39532 -20.0939 13.4828 -8.08691 -0.994625 49.8264 -0.998124 19.7477 -0.52862 -2.2368 -1.17913 -8.44885 4.91645 -0.455107 -0.153325 7.10543e-015 -5.68434e-014 -5.68434e-014 -0.251464 -0.360138 -0.343996 -34.0217 -2.71707 -23.9143 23.8378 17.4528 31.4646 -3.69494 -53.5813 -61.0969 -6.86571 29.8833 25.0988 7.82538 -1.03003 34.9982 0.385573 -7.99131 30.1484 -4.63906 -39.7037 -0.726724 -1.10142 4.19047 -0.752892 5.4911 -1 -4.11478 31.3892 25.3921 -70.6571 18.5903 -0.500613 -33.5398 -6.44509 10.0071 -7.10543e-015 -6.70575e-014 -19.8711 -0.57365 17.8563 15.6992 -1.15139 3.01528 -19.1294 -17.5859 -4.15683 -9.35745 10.8091 -1.8337 -8.59651 -3.41479 -5.18244 -8.66518 0.62114 -1 -0.994873 61.5474 -0.985518 -15.0375 -6.88891 -2.5721 -6.75884 -1.22377 10.1415 -5.80176 -1.00114 -2.9314 -2.79264 -1.67202 -7.10543e-015 8.88178e-016 1.77636e-015 39.8932 -0.404265 100.808 73.1197 12.5395 43.617 -17.3313 -15.1072 4.3047 24.4569 82.7159 50.154 7.17061 1.77758 44.312 -1.5508 38.443 30.8198 0 58.7563 79.2926 25.1228 52.6112 49.3846 0 40.4716 68.1842 52.8117 0.206845 55.8198 -5.391 0.363865 54.8723 35.1553 -1.30017 -0.996864 -2.4375 -0.439117 29.9565 27.4221 66.3299 34.3645 -17.032 -12.467 4.52214 -2.076 46.5385 43.9535 14.7491 -8.98038 -4.69181 -3.89608 31.0269 -4.2545 0 58.9631 -0.329551 5.37026 -0.439317 -6.95178 -2.93393 18.754 4.99485 -1.69375 -2.9314 -2.44897 -3.88477 -5.52817 -1.30017 -0.768928 -0.449627 -9.65137 40.5265 29.1387 25.1332 -19.0507 -12.1251 -8.24632 10.3468 -1.65988 -0.123593 22.4226 -5.1892 7.20252 -29.8951 -35.7381 34.0946 19.759 -3.83773 25.8999 55.9639 26.8512 27.6679 19.9433 2.13163e-013 -3.49869 1.06307 25.7763 -90.7155 31.8638 2.66755 -2.32199 -20.8218 -12.8169 -2.62423 -1.71813 -4.31978 21.7846 12.7767 23.6507 30.8775 28.8272 -7.49023 -10.6041 41.3419 -17.022 39.009 -16.7087 3.25041 -2.45068 -22.7367 -30.0863 11.3021 -1.00309 2.84217e-014 36.2656 -0.999503 -7.61363 -1.2693 -24.9006 -27.9675 10.9533 18.3578 -2.27912 -2.70936 -3.31039 -5.71212 -8.70721 -2.62423 -1.26456 -0.810737 19.0737 37.6786 40.3082 14.9538 0 0 10.29 21.7934 45.3089 -28.9549 9.31507 13.4234 28.8636 24.7789 10.8515 19.8825 0 30.5752 61.9152 76.7089 54.0484 28.2153 0 43.7161 84.3452 83.5893 0.00240364 75.4224 29.0906 -0.175044 2.73327 75.4319 -0.000239907 -0.0341286 -0.284565 39.9287 55.4306 45.0686 33.2075 49.2899 -0.304254 -0.430076 0.220582 3.23018 80.1229 3.3401 4.30518 -2.12411 6.37608 0 66.7018 -0.439321 0 17.6017 -0.251295 0.626592 -0.0356039 -0.000210886 -0.996393 39.2107 5.76636 -0.0873792 -0.0437273 -2.4869e-014 0 0 -0.000239907 -0.0340174 7.10543e-015 30.6879 -0.979527 35.1105 -27.0974 -30.1546 -25.2269 -41.0085 -29.9357 6.67204 -18.3379 -6.35484 46.1035 -57.6549 -37.9633 1.47271 -5.6157 14.2048 62.0234 -0.773746 9.55834 42.1412 7.10543e-015 1.45214 55.9961 64.235 -0.555645 69.3622 -9.34212 -4.67827 14.3467 18.8118 -1.94222 -1.35189 -16.0724 -0.351217 -7.81548 -1.75088 20.4719 10.8164 -33.549 -29.6371 -2.49348 -43.1473 59.2359 40.7755 -17.0928 -5.34741 -1.48229 -1.96729 -2.64468 -0.516113 4.88498e-014 64.5513 -0.458187 42.526 -1.31806 -10.9712 -28.6668 4.48687 11.2017 -4.17823 -5.27932 -6.92569 -12.3918 -7.17065 -1.94222 -0.997564 -0.592004 -40.4019 -36.5843 -48.7652 -90.0959 -91.7342 -55.8307 -43.211 -67.7059 -85.8292 -67.9225 -19.0422 -84.1758 -38.6548 7.67309 -20.4561 -23.0008 49.1392 2.8939 -18.2443 21.4059 -3.55271e-014 23.9771 34.9968 21.0666 -5.51959 28.1344 -12.0404 -25.1174 -1.95562 25.5921 -1.42117 -1.11385 -40.7563 -44.5905 -7.00746 -30.5654 -42.3826 19.9865 -39.7068 -43.7714 -48.508 -94.8707 6.98991 31.4713 -43.9715 -3.83957 -11.7632 -9.44174 -27.4766 -0.798518 -1.42109e-014 59.8835 -0.576237 30.7971 -1 -5.72018 -50.2677 -27.4007 5.31519 -3.28211 -3.22177 -3.10629 -2.74993 -2.52425 -1.42117 -0.799646 -0.162001 33.4177 -53.8498 -58.695 -28.7101 -64.0107 -6.39698 41.7406 -13.5811 1.82328 -16.2839 -61.8627 -27.1203 -54.1331 -10.581 26.2339 43.3053 -0.845521 20.325 15.1527 -1.36241 17.726 67.3869 22.1372 -12.4441 48.6086 -7.66595 -5.36758 -1.79111 26.5061 -3.06089 -2.23664 -16.3969 -5.40295 -9.81305 -22.7541 13.7144 -0.941086 -55.2356 -51.183 -5.92659 -17.7381 22.3527 -13.7829 -12.6674 -13.8699 -5.0788 -40.5676 -2.05607 -4.34907 -0.988825 44.4208 -0.992479 17.3096 -2.02837 -15.7115 -31.1324 -1.3392 1.21161 -4.71518 -6.09833 -8.39775 -7.59277 -1 -3.06089 -1.6863 -0.996441 -10.427 -24.3979 20.8868 -28.0689 -63.2454 17.5553 -11.807 3.79249 -5.57679 -61.869 -38.9356 -37.7868 -10.4291 39.6113 56.9857 -0.908985 16.3506 48.8405 8.34888e-014 39.4022 23.1505 7.35729 -51.7835 19.4762 10.852 -0.552115 15.8883 19.4762 -0.0490001 8.88178e-016 -0.717849 30.0969 16.5854 -17.5431 46.1484 7.83919 -2.13643 -2.07434 -21.4965 -35.5498 5.13387 28.8391 9.40294 -3.41721 -4.40082 -18.2688 3.66553 -3.17257 0 60.1138 0 28.454 -1.42109e-014 0 -1.62679 32.5706 0.100502 -0.362766 -0.357699 -0.343251 -0.289849 -0.252549 -0.0490001 -2.05391e-015 4.44089e-016 -29.396 3.3226 -17.1367 41.1438 8.58734 13.2045 -0.491489 0.00840537 4.10177 16.2122 10.5202 -0.272438 48.7525 68.5168 10.8902 28.2532 4.15672 -0.00101181 4.44627 4.72311 1.99987 0 2.83923 -2.40489 -0.0332031 57.3724 2.83901 -0.0143537 -0.0085558 -0.0349121 15.6808 58.1786 -6.13497 36.9519 27.7665 -8.08911 -6.67232 -0.999268 -2.97789 9.3176 0 4.33179 0 0.257814 0 -0.485143 0 0 13.1442 0 60.7763 -1 0 -0.732534 4.4613 -0.0846457 -0.199021 -0.145702 -0.110052 -0.0656045 -0.0507356 -0.0143537 -0.00361042 0 7.68878 12.3706 68.4088 6.52502 26.3791 -0.00165547 2.27374e-013 2.04635 42.9168 7.37142 0 64.9984 114.226 -0.00176564 50.8892 2.97291 0 3.39162 3.54201 0.948735 0 2.1979 -0.91691 3.41061e-013 64.5074 2.19847 0 0 -0.00165547 13.9783 58.4582 19.673 51.7775 28.8545 -3.65238 -1.62794 -0.00176564 -0.516846 4.33115 0.769834 2.31874 0 0.0576709 0 0.712229 0 0 9.47675 0 56.5347 -0.516357 -0.00167662 -0.408068 2.38072 0 0 0 0 0 0 0 0 0 8.75047 20.6969 1.86359 4.06253 4.41613 1.22542 -33.9189 31.0994 -10.8142 -3.55271e-015 44.0712 83.1206 35.4575 29.7709 32.1291 -4.44089e-016 20.0362 53.0994 43.6132 -13.3792 47.0267 11.2166 -14.7336 53.2372 47.0301 -0.860658 -0.796864 -6.74618 68.8054 97.2189 -14.0105 57.2302 44.2946 -24.1778 -40.7567 -3.46893 -14.1084 14.3634 -1.24951 31.6395 -41.2109 -15.4349 -1.33041 28.6339 0 -1.33227e-015 39.4925 0 28.877 1.38556e-013 -1.43777 -18.7088 26.4021 -1.22803 -1.32748 -1.31943 -1.28741 -1.18395 -1.12204 -0.860658 -0.734494 -0.616058 39.9456 26.7763 0.11449 -7.50079 30.1715 -10.8907 -10.8005 9.8235 -0.591947 73.4306 45.905 41.5637 44.707 42.9268 2.66454e-015 46.2864 50.562 48.4788 -26.1095 37.894 6.79444 -19.8989 43.9548 37.8987 -1.69767 -1.41114 -11.2164 22.2345 10.4419 32.3989 45.4689 45.086 -5.89196 -10.1038 -14.6877 -7.14654 37.4093 -4.36304 38.5997 -18.6399 -14.3162 -1.46816 16.7016 -2.45477 9.54792e-015 48.173 -0.798989 0.498623 -2.40484 -6.19777 -17.6634 39.0729 -9.35188 -3.41479 -1.00214 -5.76709 -5.95757 -4.25793 -1.69767 -1.18091 -0.835259 11.1619 -6.9011 8.24413 25.5252 -37.5756 18.8502 -5.65253 -6.07358 2.28924 41.5196 6.13246 15.6758 19.8435 -0.994134 14.7472 56.4666 30.5796 26.9871 46.7618 -8.27256 -2.64812 -3.17371 24.5526 -0.744442 -0.575317 -12.9092 -0.852879 6.91875 14.5927 0.942975 15.9466 -9.62253 -12.5034 -28.5088 -22.9419 4.69995 19.577 -9.73943 -16.8192 -4.28811 -20.0526 10.1506 1.1724e-013 -0.731603 63.3441 4.9738e-014 35.0808 -2.87058 -2.36015 -16.7328 -13.1295 7.94427 -2.28445 -1.49285 -2.28302 -1.00186 -2.44458 -0.744442 -0.454473 -0.293317 -29.2544 27.1687 -46.8284 -79.0705 -23.5337 -70.5581 -5.59548 41.428 76.9926 38.1064 53.2748 38.3602 -0.998132 40.9039 24.0439 24.874 -80.5161 28.1093 -5.98655 -0.520413 -27.2513 28.1085 0 0 -0.540128 19.4963 8.0188 -3.42674 33.4363 24.3572 -1.53669 -1.62166 -7.72108 -40.9697 48.9526 -15.5499 7.97192 -19.7303 -29.1206 -30.5239 12.765 -3.58674 -0.710837 36.039 0.516113 2.50483 -0.284521 0 -1.45694 11.6483 0.549948 -0.150513 -0.0804451 0 0 0 0 0 0 11.8779 3.87757 -41.8241 8.05885 -31.7946 -0.013908 65.3525 80.231 24.0192 54.7193 41.2537 -0.394074 59.0676 47.47 44.9032 -20.8671 52.5662 8.29768 -2.49873 60.3704 52.5606 -0.188438 -0.0661294 -2.66115 55.9938 31.2627 -3.17106 58.9651 9.5628 -29.3626 -24.343 -29.4854 -28.7885 31.8571 -6.46642 40.3994 -16.2328 -7.31422 -4.10092 51.8765 -5.9091 -0.279649 41.6805 0.516113 55.9977 -0.214577 -0.190975 -13.9901 36.0366 0.484149 -0.902804 -0.875749 -0.831317 -0.698764 -0.614312 -0.188438 -9.32587e-015 0 -1.63454 -48.0444 -18.2933 -67.4027 0 70.7423 86.7501 97.4698 41.8213 2.32549 -0.232685 12.0252 64.45 58.3361 -36.6478 62.0349 11.9883 -1.42109e-014 34.9846 62.0317 -0.458905 -0.218828 2.84217e-014 53.5519 46.0738 11.1805 58.8303 20.0885 -0.575842 -0.999527 19.2536 0.310411 66.3749 -5.04134 8.8915 -20.3176 -40.3971 -1.93062 37.3946 -7.40465 -0.168047 56.8713 -0.658696 2.08559 -0.0290809 -1.08533 -1.51803 5.35379 5.28296 -0.00414946 -0.189275 -0.340848 -0.49216 -0.585729 -0.458905 -0.189114 1.06581e-014 -63.4942 -20.999 -13.3171 -2.35903 27.6858 11.9599 8.6027 -30.9316 15.1243 1.7053e-013 7.06874 32.4383 -5.05968 -64.9132 12.1994 3.38125 0 -6.58679 12.1993 -0.223143 -0.18166 -0.229995 29.9072 -5.94297 -42.1521 -9.25048 43.1451 -0.275378 -0.509653 -1.07901 -14.466 3.41061e-013 1.33813 -6.82214 -25.7852 -31.8815 -10.0135 -29.2875 -2.3189 -1.98952e-013 32.9675 -0.993324 -5.6155 0 -0.393389 -1.01198 -16.3486 -0.00832034 -0.223146 -0.25644 -0.281413 -0.306483 -0.306485 -0.223143 -0.131832 -0.00840865 51.254 41.2118 0 90.9551 96.0425 63.3119 78.6529 64.8855 -0.194537 27.2278 92.2122 63.8007 5.24088 50.9503 5.07993 -0.379909 30.7471 50.9512 -7.10543e-015 -1.06581e-014 -1.24677 98.2988 53.8066 40.57 61.0455 56.6736 -3.28845 -5.72247 4.75416 25.9927 43.9757 31.6225 50.9528 -1.98439 1.36636 -8.76936 17.4801 0 -0.132838 57.6467 0 2.02779 -0.36378 -0.324026 -16.3744 44.6718 2.56253 -1.77636e-014 7.10543e-015 -5.68434e-014 -5.68434e-014 7.10543e-015 -7.10543e-015 -7.10543e-015 3.55271e-015 -25.2439 -2.70136 17.831 23.7325 24.1302 13.3275 12.9305 -0.891432 28.7138 29.0385 53.3844 9.58433 45.4727 -33.7681 -15.2139 -1.08178 22.4075 -4.29204 -2.92635 -10.3452 14.059 17.8016 13.9881 9.81311 -11.4947 -51.4709 -43.4457 6.82417 -54.3648 42.2453 -1.96261 4.07203 -6.79321 16.0365 -5.64352 29.9341 -1.76722 -0.814456 27.6285 -0.768057 0.994873 -7.61402 -14.6878 -16.4415 -2.51628 -7.24935 -8.69637 -5.32827 -1.01 -8.69336 -11.0984 -4.29204 -1.85662 -0.291632 -3.60088 40.4875 35.8721 5.83154 0.688811 28.5387 2.84217e-014 -1.41411 52.3969 46.7319 -63.4601 19.6135 -1.39275 -2.18467 -35.2028 13.8362 -2.9314 -3.89648 -3.84489 44.3844 34.4806 11.0804 -18.5382 40.8344 -6.52395 -8.90363 -9.25324 -30.0332 12.3788 27.7076 -35.7397 -4.86401 -18.0245 -14.5858 0.627083 -2.73684e-013 -9.23706e-014 30.343 -0.184546 -7.13844 -1.23305 -3.00918 -31.4227 -23.2805 10.4286 -2.15876 -2.51737 -2.99334 -4.65808 -6.31905 -2.9314 -2.79251 -0.998874 9.52881 32.6176 1.41395 26.8695 15.1251 0 1.1892 0.571904 0.153414 0 0.210788 0.926781 0 0 0.210788 0 0 0 3.59294 4.09976 31.1683 26.834 2.94555 0 0 0 1.24861 0 2.85962 0.17859 0 -0.110079 -0.0846457 0.299346 0 5.68157e-014 11.7625 -0.00803014 0.994141 0 0 0 0.00168189 0.0240545 0 0 0 0 0 0 0 0 67.2543 16.5109 -12.8928 26.4877 3.55271e-015 8.57966 38.001 26.9314 -72.8224 14.4543 -19.5793 -6.68342 3.05556 1.31368 -1.77356 -1.40497 -28.9674 -13.5939 -20.0784 -62.822 0.347664 -11.2015 -32.8677 -32.2291 7.34354 -46.1193 27.2036 0.181747 6.34498 -34.6615 -41.4474 -21.7308 -5.98558 -14.4656 -7.10543e-015 63.4868 0.516113 75.1443 -1.80758 -11.2612 -24.5706 7.07992 8.60014 -5.2793 -6.92565 -9.6625 -7.1709 -1 -1.77356 -1.15911 -0.851141 -20.7735 -80.545 -15.7815 -0.340495 0.314316 65.0405 -6.50236 -13.8696 33.5796 -38.9077 -19.861 -35.2437 33.5796 -1.94395 -1.64713 -30.845 -97.6388 -41.1458 -52.2924 -82.4701 9.33932 -44.7696 -46.7914 -65.7454 -101.095 -24.1014 1.41066 -83.7875 -18.0384 -13.8502 -15.2319 -52.7461 -0.989835 -0.00102989 39.176 -0.595967 -5.32938 -5.57341 -6.16432 -54.3768 -64.0094 -4.37351 -13.3213 -11.188 -8.03271 -4.86395 -3.95265 -1.94395 -1.39508 -0.989555 -7.35994 -34.5894 7.10543e-015 9.59433 51.4252 13.6404 -8.39849 42.2163 -19.8685 0.999535 31.6092 36.2552 -3.20359 -2.61247 -8.15332 -47.9287 -19.0926 -17.8048 -55.3972 39.5067 -22.0649 -27.2776 -49.3754 -39.6849 -14.9359 36.6753 -43.3804 -4.07633 1.63776 -1 -43.597 -0.986579 0 38.8167 -0.586953 1.82433 -1.42109e-014 -23.9124 -42.9276 -45.6443 -11.2565 -2.61205 -3.20376 -3.65848 -4.17206 -4.23572 -3.20359 -1.88221 -0.00751997 40.7362 -1.28981 35.4118 61.7288 59.8054 -3.83073 39.2206 -0.0805668 -3.49239 -0.107481 15.6906 -0.950502 -0.611712 -8.90984 13.6617 45.2737 -34.7915 -17.6326 49.8014 -25.2907 -25.9298 -4.74442 -77.4979 31.0582 34.4137 -39.0566 -4.31195 8.96681 -14.2839 -5.54747 -0.750385 -0.995483 65.5855 -0.271361 8.207 -1.29696 -7.74561 -23.3512 -26.8046 16.8527 -1.42109e-014 -0.00291518 -0.123538 -0.959599 -1.22098 -0.950502 -0.00290235 2.84217e-014 -10.427 -13.3887 5.4703 14.3789 -65.899 24.5261 -25.6899 -0.187025 -38.5247 5.42261 -4.26326e-014 2.27374e-013 -0.742394 -18.2805 -46.4309 -36.3914 -57.2121 33.4712 -0.386258 -1.18789 -11.7523 -58.2799 42.0864 -20.708 -57.9856 -15.7056 -69.0713 -47.9441 -21.8161 -8.52651e-014 -1 30.7762 2.84217e-014 -21.7588 3.10862e-014 -5.78882 -8.86224 -31.6753 14.3751 -0.564761 -0.618834 -0.66097 -0.672221 -0.607981 -4.26326e-014 -4.26326e-014 2.84217e-014 0 0 0 0 0 0.18976 0 0 0 0 0 0 0.006883 0 6.74634 0.992387 0.867241 0 0 0 0.265328 0 0 0 0 0 0 0.0292482 0 0 1 0 0 0 0 0 0.00173447 0.0569535 0 0 0 0 0 0 0 0 66.9676 40.5157 -67.5032 41.1963 -33.817 -1.09388 -24.7573 13.5936 0 5.68434e-014 -1.54558 18.2339 -10.4933 -47.1939 -57.0791 16.5469 -2.76231 -3.40568 -21.659 -28.671 31.6847 4.37651 -59.7168 -1 -26.4431 -41.0176 33.3443 0 -2.13163e-014 25.5622 0 -2.51745 -0.722304 -1 -7.57829 -30.6129 21.9794 -0.612659 -0.56822 -0.481303 -0.0541612 0 0 4.26326e-014 0 -22.9694 -30.4866 -10.541 -49.7009 -1.51319 -8.16204 -20.641 -1 -0.523682 -2.49631 -45.1344 -85.3332 -60.3894 -65.5654 -16.3231 -3.65371 -4.72309 -38.7022 -24.5254 -29.3934 -21.6315 -77.3016 -56.3276 -91.2506 -45.458 -54.3601 -4.38721 -2.4869e-014 17.5077 -0.0152435 -1.16182 -0.896409 -35.5354 -13.0955 -60.0211 -27.2068 -1.53983 -1.76616 -2.05639 -2.98401 -3.79327 -1 -0.0153873 -0.0153895 -32.3486 4.80541 -18.647 -0.978881 13.0721 1.07494 -6.20361 -1 -1.84079 -15.355 -28.8527 -39.1767 -68.25 46.9678 -2.44812 -3.51531 -71.7057 -4.39207 -14.8214 42.7378 -22.4234 -13.7201 -34.4869 -8.81254 -78.9977 -2.00166 1.42109e-014 31.8656 -0.981163 -0.485162 -0.439375 -40.1824 -14.3695 -14.8286 -36.7845 -1.30347 -1.51253 -1.77325 -2.55285 -3.17425 -6.20361 -1.96729 -1 18.8923 22.4812 0 -0.193968 18.8922 -0.0234508 -0.00236327 0 69.3225 25.8701 11.747 7.58122 26.1045 0 0 0.276919 0.742016 2.26648 37.7239 3.38758 -0.544128 23.5516 -0.999374 18.6226 -0.28807 7.10543e-015 3.80912 0 7.10543e-015 0 -0.0358368 -0.00230892 5.6542 0 0 -0.00230643 -0.0234158 -0.0497093 -0.0549957 -0.0234508 -1.33227e-015 0 -22.8678 -0.779772 -1.76921 -1 -1.96729 -1.96729 -1.94878 -38.2266 -31.524 -41.13 -51.2202 -4.10975 -2.60629 -3.34576 -73.2362 0.519531 -21.6874 0.745083 -56.6504 -5.34721 -33.8495 -11.5382 -72.106 -1.36455 1.06581e-014 25.096 -0.805505 -0.388416 -0.69165 -44.14 -9.15011 -43.6899 -38.4724 -1.12124 -1.2995 -1.53702 -2.36668 -3.19492 -1.96729 -1 0 0 28.3226 22.8674 0 0 0 32.5996 5.05624 -8.22873 27.4355 48.4528 0 0 -7.64111 0.519531 15.1301 21.4737 17.4618 -0.729802 -10.3868 -7.40495 -21.0608 -0.196123 -0.171419 51.3666 0 1.53272 0 0 -0.992984 23.0319 0.229804 0 0 0 0 0 0 0 0 3.95074 0.779693 0 0 -0.575826 0.581932 31.8183 1.66517 2.94546 0 -1.13687e-013 0 1.11739 0 1.54315 0 0.549015 0 0.117687 0 0 0 0 2.45207 0 4.11234 0 0 0 0.529239 0 0 0 0 0 0 0 0 0 1.76908 7.10543e-015 3.04201e-014 -29.0417 -41.0026 22.0635 -29.4654 -0.0508783 3.52673 -42.3983 -44.2439 -44.7207 -77.5377 -29.641 30.5848 -16.1172 -0.511457 -2.00797 -1.32878 -4.14674 -0.191868 -0.0083068 71.3773 -0.00696247 27.9229 -2.08163 -0.277108 -6.71176 -9.76987 2.84217e-014 3.05533e-013 -2.55795e-013 -8.52651e-014 2.84217e-014 -2.13163e-014 7.10543e-015 3.9968e-015 0 0 -1.88294e-013 -1.9487 -38.2296 -31.5238 -31.9788 -51.2196 -4.10969 -2.60626 -3.34606 -31.0945 0.519531 -21.309 0.745094 -56.6504 -3.34576 -33.8526 -11.5377 -60.4691 -1.00702 0 26.3732 -0.58355 -0.388342 -0.691671 -11.5382 -9.14959 -43.6899 -16.1771 -1.1212 -1.29959 -1.53695 -2.36677 -3.19517 0 -3.90799e-014 -5.32907e-014 0 0 0.42442 1.43361 0.686824 0 0.315275 0 0 1.57183 0 4.86401 0.158102 0 0 0 0 7.15575 0 0 9.26147 0 0.0611372 0 0 0 0 2.76785 0 0 0 0 0 0 0 0 0 0.388039 1.25445 0.669052 0 0.307696 0 0 0.997855 0 5.34741 0.144977 0 0 0 0 8.6709 0 0 1 0 0.0581856 0 0 0 0 2.13706 0 0 0 0 0 0 0 0 2.93164 20.8749 3.49184 3.72811 0.596062 0 0 3.0415 0 3.3029 0.185735 0.795345 0 0.210932 0 0 0 0 4.01472 0 1.34437 0 0 0 0.734838 0 0 0 0 0 0 0 0 0 0.612633 -46.2024 16.7907 20.5195 -6.59499 -11.2814 -4.25777 -65.6268 28.1069 -13.7935 -21.9112 -15.1238 -45.3816 -30.0414 -47.1775 -1.82454 -0.00688139 69.6704 -0.00387891 -2.71341 0 -0.995882 -19.2438 -13.3528 1.9984e-015 3.55271e-014 2.13163e-014 4.61853e-014 -0.209347 -0.366125 -0.424497 -0.345836 -0.254335 -59.3206 -1.12663 8.71028 -42.8463 -38.1417 -25.275 -54.3717 -5.93695 64.3782 -3.43328 -33.4736 -11.217 -4.76587 -22.3415 3.41061e-013 -0.0880423 51.4401 4.26326e-014 -4.80462 -32.5293 -3.57183 -23.307 16.7767 -4.98831 -1.00099 -6.16138 -7.64526 -3.65949 -2.86027 -1.43391 -1.10775 -0.881139 2.28845 53.7095 -21.467 -22.4285 -21.6358 -13.1177 34.0054 19.1504 -12.5648 -13.1831 0.360377 -1.15234 19.6626 -0.993453 -1 53.6218 -0.419264 -29.2732 -0.52859 -6.12032 -18.6031 -4.55662 2.94569 -0.455076 -0.153374 3.55271e-015 -2.4869e-014 -7.10543e-015 -0.68677 -0.607621 -0.409151 7.78399 -26.8281 -27.7864 6.44047 -85.9999 52.311 12.7045 -20.0488 -1.84887 -28.5215 -26.9847 -1.35296 -0.565384 -0.81075 47.1671 -0.463805 33.3898 -0.00775213 4.9738e-014 -24.9121 -5.97798 2.76808 -0.913164 -0.845675 -0.745077 -0.53347 -0.450915 7.10543e-015 -7.10543e-015 -3.55271e-015 -4.7155 -3.7911 -45.4255 -42.635 -40.85 -7.59277 -50.3565 -1.50775 -32.512 -7.33032 -35.4693 0 -0.761962 26.6661 0 42.8542 1.77636e-014 -0.508832 -2.24243 -49.1145 -0.24821 -0.0325077 -0.129732 -0.199278 -0.281308 -0.302604 -0.315335 -0.29771 -0.27247 0 5.50738 1.4834 5.84498 0.447407 1.68603 0 0.276248 0 0.196087 0 0 7.12768 0 2.78264 0 0 0 1.67341 0 0 0 0 0 0 0 0 0 12.6755 1 9.66905 0.500806 2.13308 0 0.340824 0 0.246165 0 0 9.31945 0 2.02021 0 0 0 2.1237 0.102715 0 0 0 0 0 0 0 0 -2.94022 99.1449 1.43145 -0.356063 -0.650239 -0.0269387 0 41.8846 -0.0396798 -3.55271e-015 36.039 -0.0762719 2.91681 -0.272986 -9.05054 -26.3286 -1.58523 19.2875 -1.73302 -2.14242 -2.71468 -4.99591 -7.84153 -1.57192 -0.710744 -0.423331 6.57672 35.9583 17.366 -0.420009 -9.87882 -15.1238 -3.2304 -0.197734 -0.228866 57.8192 -0.00685211 4.35192 0 0 -0.00683966 30.2345 0.102715 0 0 0 0 0 0 0 0 9.31394 -27.7264 -7.03324 -5.25485 -1.02543 -30.8981 -0.47439 0 41.6781 -0.30139 3.12201 -0.685504 -19.0415 -43.1768 -25.3396 -22.6982 -1.83307 -2.21822 -2.75714 -4.90326 -7.58184 -4.86401 -4.86401 -1 -41.1779 -0.160129 -34.1683 -36.4469 -27.0725 0 1.77636e-014 56.5325 0 3.11668 0 -0.198305 -0.538409 -25.1748 -0.0275434 -0.116098 -0.141511 -0.160078 -0.18015 -0.182887 -0.158102 -0.129888 -0.0945022 -1.31781 -9.66219 -6.92448 -12.6036 -0.347876 0 64.5783 -0.319099 1.13687e-013 -0.215608 0 -4.21843 -3.66156 3.64934 -0.319438 -0.269798 -0.192116 0 0 0 0 0 6.74634 0 10.159 0 0 2.51633 0 0.166352 0 0 0 1.7433 0 0 0 0 0 0 0 0 0 -6.27979 20.4503 -0.199078 0 22.0934 -5.68434e-014 0 0 9.76996e-015 -0.466839 32.2881 1.42109e-014 -0.142919 -0.134924 -0.120308 -0.0673004 -0.027883 0 0 0 0 0 0 14.5784 0 0 0 0 0 34.1483 0.11423 0 0 0 0 0 0 0 0 -1.79504 -0.0211776 35.9535 -0.877414 0 0 -8.13113 -0.998291 30.6448 10.3082 -0.548896 -0.751855 -0.995431 -1.66258 -2.1375 -7.15558 -5.31519 0 0 1.00776 0 0 0 0 0 0.539533 0 0 0 0 0 0 0 0 0 0 0 0 0 0 0 0.00171571 0.0496538 0 0 0 0 0 0 0 0 -0.755608 -25.5643 -1.43797 -25.5641 -25.5607 -74.4483 -37.4723 -2.38353 -2.7099 -3.1158 -4.32903 -5.29543 -9.26147 0 0 0 0 0 0 0.460941 0 0 0 0 0 0 0 0 0 -23.8697 -0.220042 -0.969643 1.6281 -0.0890201 -0.116404 -0.10553 -0.0965297 -0.0825966 -0.0771863 -0.0614102 -0.0554515 -0.0509775 0 0 0.231142 0 0 0 0 0 0 0 0 0 0 0 19.5708 0 0 0 0 0 0 0 0 4.35442 0.548721 0 0 0 0 0 0 0 0 2.76862 -0.213257 -0.135283 -0.020173 7.10543e-015 -1.06581e-014 3.55271e-015 -1.42109e-014 -3.55271e-015 0 0 0 -5.31519 -8.6709 -2.7687 -1.66262 -0.995337 0 0 0 0 0 0 0 0 0 0 0 0 0 0 0 0 0 0 0 0 0 0 0 0 0 0 0 0
label 22 15 16 20 37 61 76 80 82 88 73 84 105 147 143 53 35 28 18 19 47 25 56 44 46 50 48 51 54 45 36 52 39 17 14 31 43 41 49 60 68 77 58 42 55 30 40 38 75 59 64 98 70 78 63 65 101 69 21 29 97 127 146 129 71 62 57 33 27 120 142 66 79 34 23 32 171 87 116 74 190 140 107 94 26 7 133 67 24 92 115 81 159 200 111 170 122 93
nr_sv 5 11 8 3 4 10 4 1 6 3 4 2 2 1 1 10 4 6 3 7 18 6 12 17 20 14 21 13 4 14 5 9 7 6 7 5 12 17 6 6 8 6 6 11 11 2 7 5 3 7 5 1 5 3 6 6 3 2 3 3 2 1 1 1 5 6 8 5 2 1 1 4 4 4 3 3 1 3 1 5 1 1 2 2 4 1 1 1 3 2 1 1 1 1 1 1 1 1
SV
8192 8192 8192 0 0 110.3872612140892 48.59821907411852 0 0 0 0 0 0 0 396.8025829903825 0 8192 8192 8192 8192 8192 8192 8192 3961.658503246572 8192 0 0 0 202.3688266455324 8192 0 1633.72088647284 8192 8192 5915.480944936952 8192 8192 0 4910.520610131078 0 0 0 7424.324425826813 0 990.5625742429744 5346.798591013977 6115.021979047408 0 818.2056958082104 0 0 0 0 0 0 0 0 4231.959592235034 0 0 5.316194680019411 0 400.6292373682289 0 1704.262885174075 2072.288698480212 994.4366092346306 0 0 0 0 0 0 0 0 0 0 0 0 0 0 648.6486631289283 0 5819.433107148637 2558.263802940795 0 0 0 107.6408401554954 266.1876026496148 200.3611016376264 146.5150429464499 77.49009412883254 55.51475737973274 5.316194680019411 0 0 1:-0.73913 2:-0.666667 
8192 6834.029943680096 1828.750088183519 0 0 0 0 0 0 0 0 0 0 0 2378.317919053552 0 4339.358680837276 8192 8072.296780889705 2836.999123641021 110.2780102428202 339.2357144977377 3550.014849654463 0 146.3614828320428 0 0 0 0 4249.393671296197 0 0 8192 6703.000111192185 0 815.474252413845 0 0 0 0 0 0 1396.233342853747 0 1908.018086813769 0 0 0 0 0 0 0 0 0 0 0 0 0 0 0 0 0 0 0 2304.563900208662 0 0 354.7011487619163 0 0 0 0 0 0 0 0 0 0 0 0 0 319.8364475321689 0 8192 4514.771248318739 0 0 0 0 0 0 0 0 0 0 0 0 1:-1 2:-1 
6126.365255645939 0 0 0 0 0 0 0 0 0 0 0 0 0 0 0 8192 778.867164431599 6336.209457690887 1986.746710947048 8192 8192 8192 8192 8192 0 48.13402600347293 0 0 7152.420403735079 0 8192 849.2291364010015 5781.417885578482 0 0 4510.354309684786 5550.370992824779 4027.848993393147 0 2275.070976608216 0 0 148.6828817608362 8192 5684.310959827515 361.4520871828977 0 2038.816049062951 1649.420073247965 1152.082713913281 0 0 0 0 0 0 0 1492.721667837562 0 0 0 0 0 0 8192 3291.36409209423 0 0 0 0 0 0 5262.29539668854 0 0 0 0 0 0 768.7885804126257 181.2523886655179 0 8192 1118.964948740465 0 0 0 0 0 0 0 0 0 0 0 0 1:-0.913043 2:0.666667 
8192 8192 8192 1043.954665626001 8192 329.6590713284134 288.4263386692933 386.6671996477015 215.6094225900575 565.0615511004714 20.92468093858343 29.09989201959266 80.84470229949295 71.12455645759596 8192 120.2378537561664 8192 5308.268078389087 8192 8192 8192 8192 8192 8192 8192 4164.755497949555 305.4579392469044 195.9546782767794 8192 8192 8105.976101725899 8192 8192 8192 8192 8192 8192 3037.223113291882 8192 1085.864486649153 1344.032183642027 973.6120890050564 0 174.5745140364464 0 8192 8192 3259.390727839681 8192 3586.173724676668 0 68.28552365977519 48.17495137553432 94.18116482394376 29.09989201959266 24.33197959373247 1058.499432176565 1152.117584692789 8192 24.33197959373247 61.65886591720294 60.153657504679 461.3401503444064 8192 8192 8192 8192 7676.704708101972 4232.395560040564 1881.48659863176 2076.956845664868 5446.787345351024 2066.034349284252 4842.971438249246 4318.433374030524 48.15391407964992 386.4388007528457 242.4850380206898 348.7763761454265 19.05267360362581 0 0 7.599599301547931 0 0 80.84470229949295 470.7279818186909 4168.001244903991 42.42939480706674 0 15.51620252179287 31.98057415997992 50.44527503409255 54.88843119591895 61.65886591720294 54.27921227081989 44.72600376955096 1:-0.565217 2:-0.333333 
0 1390.184556959633 3695.307954825023 0 8192 0 0 1000.206031640105 0 493.9674047859104 330.9829302008356 660.005581522754 0 0 4532.915093241445 0 5441.2700574157 0 5414.29681777437 8192 8192 2859.087970831794 8192 5990.025739636284 8192 4027.244502050446 8192 154.8608897629823 8168.963590311832 4982.18592496872 4561.784787658543 7177.259146440049 2213.568544092534 0 1221.559868567397 0 5825.777891549457 8192 1237.929800551861 306.7072437955892 8192 880.3420133269221 -0 8192 5293.419338943258 6672.138585037441 8192 0 8192 8192 4231.955711360467 8123.714476340225 1865.388897075619 983.2098659948665 660.005581522754 454.4238026797061 -0 0 8192 454.4238026797061 0 0 0 -0 2125.341437606777 8192 8192 1827.139216715529 0 0 615.2199162986235 1690.180749754534 1931.899050378795 8192 8192 28.98538175275261 999.5025861434009 601.5573180274647 0 26.83667958989808 1625.166261122947 7942.39260212741 36.00364136955079 1524.149917380869 0 0 0 4218.022112034604 0 0 0 0 0 0 0 0 0 1:-0.73913 2:1 
-0 8192 0 0 0 0 0 0 0 0 0 0 0 0 0 0 0 0 2106.165824517378 0 0 0 0 0 0 0 0 0 0 0 0 0 8192 8192 0 8192 0 0 0 0 0 0 0 0 0 0 0 0 0 0 0 0 0 0 0 0 0 0 0 0 0 0 0 0 0 0 0 0 0 0 0 0 0 0 0 0 0 0 0 0 0 0 0 0 0 0 0 0 0 0 0 0 0 0 0 0 0 1:-0.652174 2:-0.666667 
-6745.578434355353 0 0 0 0 0 0 0 0 0 0 0 0 0 0 0 6365.360081001962 1757.900778264389 0 0 0 0 0 0 0 0 0 0 0 0 0 0 0 1229.764039605155 0 0 0 0 0 0 0 0 0 0 0 0 0 0 0 0 0 0 0 0 0 0 0 0 0 0 0 0 0 0 0 0 0 0 0 0 0 0 0 0 0 0 0 0 0 0 0 0 0 8192 0 0 0 0 0 0 0 0 0 0 0 0 0 1:-0.913043 2:-0.333333 
-0 5361.774319473469 0 0 0 0 0 0 0 0 0 0 0 0 0 0 0 0 6368.340018482276 0 0 0 4988.732777680257 0 2.70095982645901 0 0 0 0 8192 0 0 8192 8192 0 2814.420258996125 418.2198053416192 0 110.9787332743149 0 0 0 0 0 0 24.79056799197733 0 0 0 0 0 0 0 0 0 0 0 0 0 0 0 0 0 0 0 0 0 0 0 0 0 0 0 0 0 0 0 0 0 0 0 0 0 0 0 0 0 0 0 0 0 0 0 0 0 0 0 1:-0.73913 2:-0.333333 
-8192 0 8192 0 290.5826763504752 0 0 0 0 199.0596694348137 0 70.32830872492427 0 0 4688.067848660492 0 8192 0 8192 8192 8192 8192 8192 8192 8192 0 348.7776676974676 162.3944305574831 8192 8192 8192 8192 2750.892220073454 8192 7018.514680163465 342.6183882514069 8192 1432.122953824846 8192 314.2960409948496 552.0092126476474 266.1064875031602 0 322.0842023676668 1152.518788211824 8192 6910.335238563725 0 7982.604216708842 555.7979033264875 127.5397468546882 223.3358817476704 200.2148128866261 334.4206665603615 121.607515112857 0 200.5012190074111 0 109.1498700484434 0 0 0 0 2098.785358002796 0 7754.472223724842 8192 6086.735580755954 810.0447120476779 384.79654319676 630.9956256920219 742.8156061826678 563.1611944201595 907.1562212446983 714.9280265905343 29.10650595975716 202.5573303391418 179.1078989228246 24.79000889910936 22.92176870632189 124.7432301812726 370.8159334956397 30.0326798321614 0 0 0 55.57690282766246 714.9280265905343 0 0 0 0 0 0 0 0 0 1:-0.826087 
-4121.382030469987 0 0 0 0 0 0 0 0 0 0 0 0 0 0 0 2537.16607579814 8192 0 0 0 0 0 0 0 0 0 0 0 0 0 0 0 0 0 0 0 0 0 0 0 0 0 0 0 0 0 0 0 0 0 0 0 0 0 0 0 0 0 0 0 0 0 0 0 0 0 0 0 0 0 0 0 0 0 0 0 0 0 0 0 0 0 6590.546985148555 4027.43436871206 0 0 0 0 0 0 0 0 0 0 0 0 1:-0.826087 2:-1 
-0 8192 0 0 0 0 0 0 0 0 0 0 0 0 0 0 0 0 2234.696060250331 0 0 0 0 0 0 0 0 0 0 0 0 0 3384.510433890607 0 0 0 0 0 0 0 0 0 256.784457431782 0 0 0 0 0 0 0 0 0 0 0 0 0 0 0 0 0 0 0 0 0 1983.985227436423 0 0 0 0 0 0 0 0 0 0 0 0 0 0 0 0 0 0 0 0 0 0 0 0 0 0 0 0 0 0 0 0 1:-0.652174 2:-1 
-3212.040446399998 8192 4978.139026763834 0 0 0 0 0 0 0 0 0 0 0 908.5062577402053 0 0 0 8192 882.036205591653 0 0 0 0 1963.70741167851 0 0 0 0 384.7490820179482 0 0 8192 635.9930216025949 0 8192 0 0 0 0 0 0 8192 0 0 0 3555.143749995375 0 0 0 0 0 0 0 0 0 0 8192 0 0 10.05350341222685 3.88127375758905 0 0 8192 0 0 0 0 0 0 0 0 0 0 0 0 0 0 0 0 0 0 0 0 0 0 0 138.6774691574651 492.58457680049 310.2927617333303 204.3942832316507 95.47659746107037 65.91591622777058 10.05350341222685 0 0 1:-0.565217 2:-1 
-0 8192 0 0 0 0 0 0 0 0 0 0 0 0 0 0 0 8189.468649052475 0 0 0 0 0 0 0 0 0 0 0 0 0 0 0 0 0 0 0 0 0 0 0 0 0 0 0 0 0 0 0 0 0 0 0 0 0 0 0 0 0 0 0 0 0 0 0 0 0 0 0 0 0 0 0 0 0 0 0 0 0 0 0 0 0 0 0 0 0 0 0 0 0 0 0 0 0 0 0 1:-0.73913 2:-0.666667 
-0 8192 8192 4232.395560041371 2103.667665108779 1058.499432176654 677.6209055293103 527.7190784128553 345.9719134720435 138.8329762126436 223.8094635051797 79.77712893778295 100.6667186684351 86.8682676276575 8192 156.8432024716934 0 0 8192 8192 6477.671293213094 8192 8192 529.6841698467987 8192 2107.553606607142 0 16.14671784945816 332.2035741373202 1634.021112423487 0 0 8192 8192 8192 8192 8192 0 0 284.9394700834851 0 174.9944524856888 8192 0 0 0 8192 8192 4287.004413163261 0 0 0 0 0 0 176.051491864989 661.5317195980086 8192 8192 176.051491864989 82.69721885159413 76.97831282877554 4232.395560041371 3242.373086818312 8192 437.5277762751585 15.34093227576461 2925.930844339675 1576.740938502353 960.568977231263 230.590990455988 603.8336970552018 0 0 0 31.10712096899169 0 0 312.3056838368059 12.06053230063589 0 0 0 0 0 100.6667186684351 384.7038631801335 0 144.3670855472205 231.0666902875053 192.473026764463 165.1092882264146 128.2085533416824 115.3834645052113 82.69721885159413 71.12455645759582 56.24181961415336 1:-0.478261 2:-0.666667 
-466.4673188709495 0 0 0 0 0 0 0 0 0 0 0 0 0 0 0 8192 6424.016381893745 0 0 0 0 0 0 0 0 0 0 0 0 0 121.2759204435761 0 5527.436729505698 0 0 0 0 0 0 0 0 0 0 0 0 0 0 0 0 0 0 0 0 0 0 0 0 0 0 0 0 0 0 0 0 0 0 0 0 0 0 0 0 0 0 0 0 0 0 0 0 0 8192 4164.565631287939 0 0 0 0 0 0 0 0 0 0 0 0 1:-0.913043 2:-0.333333 
-7964.897025549642 6993.983198426368 0 0 0 0 0 0 0 0 0 0 0 0 0 0 391.6577627561573 12.6141907893954 8192 4463.432625863055 6906.416998161308 5928.503594769361 8120.094138897006 0 3958.033190969275 0 0 0 0 8192 0 0 6433.633890392515 8192 238.6263171928901 5508.584271281374 0 0 8192 0 0 0 0 0 0 5607.414701750617 0 0 0 0 0 0 0 0 0 0 0 0 0 0 0 0 0 0 0 0 3106.095364274065 0 0 0 0 0 0 0 0 0 0 0 0 0 0 0 0 0 0 0 0 0 0 0 0 0 0 0 0 0 0 1:-0.73913 2:-0.333333 
-0 -8192 0 0 0 0 0 0 0 0 0 0 0 0 0 0 0 0 8192 0 0 7205.049357382061 540.9404487727824 0 0 0 0 0 0 6340.868160305417 0 0 8192 8192 0 7958.921335244915 0 0 0 0 0 0 0 0 0 0 0 0 0 0 0 0 0 0 0 0 0 0 0 0 0 0 0 0 0 0 0 0 0 0 0 0 0 0 0 0 0 0 0 0 0 0 0 0 0 0 0 0 0 0 0 0 0 0 0 0 0 1:-0.565217 2:-0.666667 
-0 -8192 0 3943.354989415198 1085.754597714407 841.7858521349602 492.9695862535306 527.6879769871423 204.5526278510685 152.0251168641083 152.838129208462 135.3161926525266 18.54267490908901 10.24698132616929 617.4217780102215 0 0 0 8192 8192 3072.368667216813 8192 8192 0 8192 2107.439564224275 0 0 0 0 0 0 8192 2471.08556918234 2808.406416902345 8192 8192 0 0 82.68903121411694 0 222.000372845459 8192 0 0 0 3908.700975216745 7670.087348041415 0 0 0 0 0 0 0 176.0470749586216 460.7867807471827 8186.162864939883 8192 176.0586714777336 0 0 3945.023548754498 1152.082712421684 6599.527921862728 0 0 0 768.5709959923781 576.5001870518026 0 288.501298299313 0 0 0 2.433042956635844 0 0 287.9666816367067 0 0 0 0 0 0 18.54267490908901 329.4698389910867 0 0 0 0 0 0 0 0 0 0 1:-0.478261 2:-0.666667 
-8192 -8192 5619.659859583047 0 0 0 0 0 0 0 0 0 0 0 0 0 8192 8192 8192 0 7896.613870525992 0 8192 0 2623.359371578835 0 0 0 0 8192 0 962.6235261090754 8192 8192 3078.815454652442 0 0 0 8192 0 0 0 0 0 286.826827086388 0 0 0 428.2322971611299 0 72.19639990877141 0 0 0 0 0 0 4.252093818010122 0 0 0 0 0 0 0 0 1911.283414551462 7748.015723746012 0 0 0 0 0 270.1514580616059 0 0 0 0 0 0 71.29684040541407 0 0 8192 3985.692240305858 0 0 0 0 0 0 0 0 0 0 0 0 1:-0.826087 2:-0.333333 
-8192 -8192 0 0 0 0 0 0 0 0 0 0 0 0 0 0 4184.046749134464 8192 6773.825766793178 0 0 0 0 0 0 0 0 0 0 0 0 0 3795.898535645646 5116.341826348384 0 0 0 0 0 0 0 0 0 0 0 0 0 0 0 0 0 0 0 0 0 0 0 0 0 0 0 0 0 0 0 0 0 0 0 0 0 0 0 0 0 0 0 0 0 0 0 0 0 1784.232596079198 3604.591495245418 0 0 0 0 0 0 0 0 0 0 0 0 1:-0.73913 2:-1 
-32.21450063973226 -8192 0 0 0 0 0 0 0 0 0 0 0 0 0 0 0 1549.833482365556 0 0 0 0 0 0 0 0 0 0 0 0 0 0 0 0 0 0 0 0 0 0 0 0 0 0 0 0 0 0 0 0 0 0 0 0 0 0 0 1.585041242107007 0 0 0 0 0 0 0 0 0 0 0 0 0 0 0 0 0 0 0 0 0 0 0 0 0 0 0 0 0 0 0 0 0 0 0 0 0 0 0 1:-0.652174 2:-1 
-0 -4163.757517899837 0 0 0 0 0 0 0 0 0 0 0 0 0 0 0 0 0 0 0 0 0 0 0 0 0 0 0 0 0 0 0 0 0 7491.15248364658 0 0 0 0 0 0 3181.55113492926 0 0 0 1696.330863996092 0 0 0 0 0 0 0 0 0 0 8192 0 0 0 0 0 0 7223.543946976617 0 0 0 0 0 0 0 0 0 0 0 0 0 0 0 0 0 0 0 0 0 0 0 0 0 0 0 0 0 0 0 0 1:-0.478261 2:-1 
-0 -0 6512.302748597504 576.412581911653 0 288.6006369529997 230.7165624159334 0 164.9781223966099 0 71.07905865056289 0 88.95018920147933 82.50560387072335 4479.366721842974 209.4873824715623 0 0 1692.267295367444 3441.337342087704 0 986.9506426179441 0 0 2983.135626945204 0 0 0 0 0 0 0 7260.909583765063 0 0 8192 2375.62652500788 0 0 0 0 0 8192 0 0 0 8192 521.9126519585874 0 0 0 0 0 0 0 0 0 8192 0 0 118.0562936275611 100.6667186684345 576.412581911653 0 8192 0 0 0 0 0 0 0 0 0 0 0 0 0 0 0 0 0 0 0 0 88.95018920147933 0 0 470.7279818186834 1881.486598631963 1058.499432176626 677.6209055293168 345.9719134720517 265.0010424893382 118.0562936275611 86.86826762765743 66.62622363598105 1:-0.391304 2:-1 
-8192 -8192 8192 0 1309.153671589162 0 0 0 0 185.0937461711149 0 14.57976157171629 0 0 8192 0 8192 1553.374656304756 8192 8192 8192 8192 8192 2528.147801434576 8192 0 319.7760496880932 157.6824595556687 5400.453480146547 8192 2330.669747299198 0 8192 8192 8192 8192 8192 388.1744786760789 1183.434092629023 516.3197363308265 270.1514580616073 217.8407828764686 0 285.9362432555986 1.6002980892169 8192 5698.788410907899 0 8192 426.9554905204225 0 187.6367156051854 192.851429164186 273.1129918576172 93.89689775404781 0 401.1748923131532 0 589.7332940526856 0 0 0 0 4231.970186422026 0 2528.244541625347 8192 514.4987880561033 1626.044584690108 770.5825213172819 741.680686105076 1058.499432176656 452.8401411316498 0 335.1045697998479 57.72061454804315 120.4999618893306 114.6862080279996 49.03740255709065 34.82173419426612 0 286.9944939835111 28.90032384758493 0 0 0 110.6019540016046 345.9219472706569 0 0 0 0 0 0 0 0 0 1:-0.652174 2:-0.333333 
-5524.058043008545 -8192 -8192 8192 4694.641566426809 1881.486598631811 1058.499432176687 279.9723813726523 470.7279818186996 279.9869464972352 282.9887155009482 0 118.0562936275615 100.6667186684346 8192 191.348650078133 8192 2285.625301875141 8192 8192 5447.383797791713 8192 8192 8192 8192 1593.810119463087 0 124.2562700744801 5233.491798937186 8192 5679.302508877551 5561.415031566677 8192 8192 8192 8192 8192 2617.346355019479 8192 843.5470712089273 0 420.4174284902924 8192 0 0 8192 8192 8192 8192 0 0 0 0 279.94385081227 0 0 1424.177692170156 8192 8192 0 107.1711573594976 92.65392049659229 8191.999999999999 7746.261311014588 8192 8192 7958.968021400056 5689.389468563094 6346.683344799552 2844.266220032892 1548.324973060146 3736.777760860527 722.8416791796285 1630.3948778751 1593.78528632189 42.03511989463434 72.02805706308223 60.11176163755945 417.3640443829399 17.46443560195556 0 0 7.105293682179617 0 0 118.0562936275615 577.7220511167417 1593.756440181916 334.4206665603565 658.4955167441732 552.0092126476549 426.9554905204217 266.2712036566762 215.6121934920079 107.1711573594976 80.84509186933477 63.03693044121911 1:-0.391304 2:-0.666667 
-8192 -4978.139026763831 -3939.962608180552 0 7376.378618420042 0 0 541.1275224370431 0 541.1792278333613 0 337.1568231801666 0 0 4593.093845501341 0 8192 2863.311664990485 8192 8192 8192 8192 8192 8192 8192 4037.90364503586 2000.873911313471 187.1512915788282 8192 8192 6592.269712041802 8192 8192 8192 5357.085918326194 4320.583733414662 8192 8192 8192 642.8571688418331 5339.531658818682 886.6765280364941 -0 1893.909231368765 8192 8192 8192 463.9793347407373 8192 8192 1079.128835145067 1084.650387945826 586.9520376459545 541.1950917671387 334.4206665603606 270.8297409106539 327.5534789431385 0 8192 270.7029717165829 0 0 0 1918.939908567186 564.480247325083 8192 8192 4442.584152959606 1845.316655200448 738.3797317820889 1275.974411762585 3327.932131222048 1668.18965090664 8192 4037.8353882178 34.11487638902688 677.124892615641 460.3236429173568 62.36122450090397 25.62321993140176 905.9950318608858 4782.264970573669 31.30091877057921 8192 976.006365862046 0 101.0708675622069 4037.756101199174 0 0 0 0 0 0 0 0 0 1:-0.826087 2:0.666667 
-8192 -8192 -8192 0 0 0 0 0 0 0 0 0 0 0 2572.220616770451 0 8192 8192 8192 7783.155806434929 6679.505174366715 8057.584235904342 8192 61.24056286801125 8154.50150510927 0 0 0 0 8192 0 0 8192 8192 3578.094780144138 8192 5119.807938274539 0 2515.713663555119 0 0 0 7397.149370491785 0 1658.51286925279 4235.101160764154 6175.756187798135 8.099732491197726 578.6533307295929 0 0 0 0 0 0 0 0 5150.881514195604 0 0 0 0 0 0 8192 0 0 0 0 0 0 0 0 40.01944098871268 0 0 0 0 0 0 0 0 0 4232.395560040363 3810.605476019161 0 0 0 0 63.77136791291401 0 0 0 0 0 0 0 1:-0.73913 2:-1 
-64.18689683121973 -0 -614.9499700696742 -107.2177952267293 8192 0 0 1558.557738827889 0 2833.851020970244 0 0 0 0 8192 0 4094.311631424276 0 8192 8192 0 8192 8192 8192 8192 8192 2606.205837513984 0 8192 8192 8192 0 137.7462364429307 0 6703.825818147223 8192 8192 0 0 5333.182365785868 0 162.1880116872765 8192 0 0 8192 8192 3889.608808057736 8192 0 0 0 0 0 0 0 0 0 2218.870007374533 0 0 0 0 4963.583193398442 8192 4423.922261459737 4768.885049420171 0 0 0 0 0 0 0 0 0 0 0 0 0 0 0 0 0 0 0 0 0 0 0 0 0 0 0 0 0 0 1:-0.304348 2:-0.666667 
-142.8696090707507 -0 -0 -0 8192 0 0 8192 0 8192 7330.967208587591 7051.099151487074 0 0 8192 0 8192 0 45.72918395988555 8192 602.6760638295052 8192 8192 8192 8192 8192 8192 4411.673212716611 8192 6114.684036069096 8192 8192 0 0 8192 8192 8192 8192 8192 8192 8192 8192 8192 8192 91.98887267003586 8192 5861.200762332549 4951.191917672549 8192 8192 89.08126547847577 8192 8192 8192 8192 6312.73473975648 2983.770978003539 0 450.9749385209511 6312.81735821275 0 0 0 8192 8192 8192 6057.438214326669 8192 602.6760638295052 1483.150502603522 1948.827717094054 1483.150502603522 3428.249863058972 8192 4956.483544438431 399.2089508184155 8192 576.0514710137086 8192 158.5904020288466 75.40786715186344 1092.9176575205 202.0240524465332 0 0 0 1100.182369272003 4832.954517242855 0 0 0 0 0 0 0 0 0 1:0.217391 2:1 
-836.8981597240311 -4232.39556004137 -3904.817601257177 -8084.782204773272 8192 6392.747702709165 5424.578298908839 8192 0 8192 4747.946188863401 3608.22386368469 0 0 8192 0 8192 723.8175667448317 8192 8192 3022.121582652413 8192 8192 8192 8192 8192 8103.625714559821 1098.662202885568 8192 8192 8192 0 8192 1881.907575645312 8192 8192 8192 4233.261283168765 5975.73146290872 8192 0 8184.991308927609 8192 6077.161075040734 109.247688619865 8192 8192 5724.023256840616 8192 3765.46639944864 21.58186353677247 419.8344181177113 0 4899.018145414708 0 3695.230064128342 6651.354833602069 2392.681998709593 8144.648935868378 3695.276819548057 5.417302266453604 0 8192 8191.111835034548 8192 8158.543818678309 8192 2808.281830430507 3022.121582652413 6708.849497396477 5791.682679995417 6708.849497396477 5156.035890590511 0 5740.666028495895 0 0 213.7334735582793 5260.940396405497 0 20.07606994057979 1981.963565670824 0 366.0220811847433 345.9719134720507 0 4470.895575930693 6229.337630759628 0 905.9950318609318 661.318223443436 480.1695775850353 248.3024769060494 172.9521872382731 5.417302266453604 0 0 1:-0.304348 2:-0.666667 
-0 -0 -0 -0 8192 1799.252297290835 2666.744892537055 8192 4938.703586069292 8192 4305.086602549009 5724.676984828235 551.9910508653023 426.9554905204225 8192 3997.468802102866 0 0 6684.135601371238 8192 0 8192 8192 8192 8192 8192 8192 8192 8192 1986.756555127598 8192 6763.114447627138 0 0 0 8192 8192 8192 8192 8192 8192 8192 8192 8192 0 8192 8192 8192 8192 8192 0 8192 7450.434369239228 8192 2839.99171071462 3865.525368549125 0 0 0 3865.253633121101 221.4612610483081 202.5597759157753 0 8192 8192 8192 7161.805369999497 0 0 0 8192 0 8192 618.0571287654144 4579.281851245117 430.8555647401507 5457.740150844631 0 8192 64.00923964376655 0 2669.463635055824 8.44547340055602 0 0 551.9910508653023 2620.922054797306 3730.033616760814 712.4377100846448 0 73.13034066457038 127.0192502638807 186.6253709968477 202.0252046801786 221.4612610483081 179.1078989228256 138.3756392068886 1:0.304348 2:-0.333333 
-0 -1046.32041014288 -317.5941316497282 -0 -8192 2378.799832366096 2731.170079450301 6626.038153224534 0 8192 0 0 0 0 8192 0 0 0 8192 8192 0 8192 8192 8192 8192 8192 3684.598240871248 69.25608437815932 8192 8192 8192 0 2410.702970170189 0 5274.975247358364 8192 8192 0 494.8788894434668 7472.956277469391 0 721.5134001928134 8192 0 0 8192 8192 6033.208028019946 8192 0 0 0 0 0 0 0 4361.137810626496 953.924933573589 6769.212641590249 0 0 0 7315.64445404478 7833.863533356824 8192 4075.601764353602 1161.075225507067 96.97548431682056 10.50509270122671 0 5336.495700579631 2924.531462446864 2082.789697229746 0 0 0 0 0 1512.138146618177 0 0 0 0 0 48.75570011876297 0 0 0 0 767.6822118720311 383.8661567796414 0.4524289075902743 0 0 0 0 0 1:-0.217391 2:-0.666667 
-0 -0 -0 -0 -0 0 0 8192 0 0 0 0 0 0 8192 0 0 0 0 8192 0 1680.90399021697 8192 8192 8192 8192 8192 0 8192 0 8192 8192 0 0 0 8192 8192 8192 0 4970.786215734452 8192 8192 0 8192 0 0 0 0 0 0 0 3043.577844091812 0 8192 5820.638083329658 0 6446.539412124425 0 0 0 0 0 0 7691.207994152996 4255.323731508643 8192 0 0 0 0 0 8192 0 0 0 0 5911.100874508365 5461.473076532036 4066.530301351933 0 0 0 0 0 0 0 0 796.9557863184052 0 0 0 0 0 0 0 0 0 1:-0.217391 2:0.666667 
-0 -0 -0 -0 -0 0 0 646.368693830691 0 0 0 0 0 0 3189.673680518501 0 7416.884370144312 0 0 8192 5580.164994889607 8192 8192 8192 8192 7607.641134288881 8192 0 8192 0 5447.642454574686 7254.257206095977 0 0 0 1563.813204322205 8192 3915.392182569073 0 0 5578.382458804961 8192 0 8192 0 0 1700.456997508558 0 6917.532735613258 0 0 0 0 2750.061036808885 0 0 0 0 0 0 0 0 0 0 0 8192 3902.97006044188 0 0 0 0 6664.028103207033 0 8192 1023.38360040203 0 0 2730.52692346797 0 0 0 0 0 0 0 0 0 8192 0 0 0 0 0 0 0 0 0 1:-0.478261 2:0.666667 
-8192 -0 -0 -4668.627177948961 -917.8042343634414 0 0 4421.580092896569 0 4213.981113826901 2380.759485210682 4026.249388357728 0 0 7698.487293324168 0 8192 119.561384829151 7372.105867457066 6408.393495048722 8192 0 8192 5581.330405865236 8192 0 0 0 2633.538214640017 7689.160163258504 0 6283.734162882053 0 2622.432683617042 1387.290849795513 0 2864.857792198648 5140.267531018933 856.3661789677308 0 8192 0 0 2852.593263460986 2846.468255621964 6591.298511775097 8192 2964.119598218797 8192 7768.534998183122 8192 2448.274494166923 4642.698962050492 8192 3700.955464283438 3350.150129383684 961.5370098900651 0 6509.859273645993 3350.016321049287 0 0 0 3627.128432707135 2704.63868857794 8192 8192 2914.205470790695 0.2964841548495757 0 0 0 1427.779369258157 8192 5470.682676212332 0 0 0 1672.395727887221 0 4232.395560041006 7288.978122506455 0 6346.683344799551 0 0 0 4437.002192567532 0 0 0 0 0 0 0 0 0 1:-0.826087 2:1 
-0 -0 -0 -0 -8192 8192 5460.8299205497 8192 7859.603369548917 8192 6095.319161484303 5397.928550975009 366.0659601681227 264.5033297305715 8192 3841.450055842043 0 0 8192 8192 0 8192 8192 8192 8192 8192 8192 8192 8192 2363.067215211911 8192 0 0 0 0 8192 8192 5385.998081311377 1289.240438907963 8192 0 8192 8192 8192 0 8192 8192 8192 8192 7514.645917661795 0 2760.530230256128 0 2605.413882102444 0 5560.092384184218 0 0 0 5560.492032809171 252.7462430100997 198.6746608617486 0 5423.800039783039 8192 8192 8192 0 0 1413.859651733345 8192 0 8192 0 3364.675443748133 186.1669084732601 0 0 8192 0 0 3119.953536557473 0 0 0 366.0659601681227 4495.025101651896 5327.994823780536 1269.54140989706 384.727285231687 768.6680996109799 1152.207162348696 905.9950318608824 714.9280265905086 252.7462430100997 158.5357157347826 104.7500249365095 1:0.0434783 2:-0.666667 
-7650.327908921383 -1347.929931316377 -2077.31413765384 -7402.393006897888 -5033.539576056625 0 0 0 0 0 0 0 0 0 3414.486076476233 0 7093.450193254744 1959.326110075534 8192 8192 5409.304331937373 8192 8192 8192 8192 8192 0 0 0 8192 0 2314.423975206022 8192 7181.191229414711 8192 8192 8192 0 8192 0 0 0 8192 0 738.9148543884814 8192 8192 0 8192 0 0 0 0 0 0 0 0 393.0757969023922 8192 0 0 0 876.3555459552196 0 1807.589628037284 0 4249.04588624273 6079.069214085751 8171.088565941738 5452.849950551916 0 8192 0 0 0 0 0 0 0 0 0 0 0 1845.316655200449 288.2772954544965 0 0 0 0 0 0 0 0 0 0 0 0 1:-0.391304 2:-0.333333 
-541.6720910786175 -0 -0 -0 -0 0 0 0 0 0 0 0 0 0 0 0 8192 0 2627.443022353607 8192 8192 8192 8192 8192 8192 8192 0 0 0 5395.944114716694 0 8192 4528.446426232482 153.8497500269584 8192 8192 7872.685675241549 0 8192 0 0 0 0 0 0 6953.668393945267 0 0 0 0 0 0 0 0 0 0 0 0 0 0 0 0 0 0 0 8192 8192 0 10.10985720218702 0 0 1325.626428202455 0 3696.286108331011 1744.260621988443 0 0 0 0 0 0 0 0 0 0 0 0 0 0 0 0 0 0 0 0 0 0 1:-0.478261 
-0 -0 -0 -0 -0 0 0 0 0 0 0 0 0 0 0 0 0 0 0 8192 0 8192 8192 8192 8192 8192 2343.170474264707 0 2944.390114396644 0 1753.836625542328 0 0 0 6581.7151620918 8192 8192 3430.964600406546 7937.033876537201 0 0 6831.693057377726 6046.394871817053 0 0 0 0 0 2144.121803182709 0 0 0 0 0 0 0 0 0 0 0 0 0 0 0 0 7270.439083063215 0 0 0 1241.199970134241 0 5164.10138092657 0 0 8192 173.0500944820405 0 0 0 0 0 0 0 0 0 0 2909.530083755346 1887.24876200041 0 0 0 0 0 0 0 0 0 1:-0.391304 
-0 -0 -0 -0 -2240.656189579936 178.5113006356039 0 8192 332.3966304510831 7933.55331411411 2593.635718689015 6959.822060667263 146.0790954849719 128.0026055321751 8192 7346.321607448468 3266.050354203243 0 0 8192 0 8192 8192 8192 8192 8192 8192 8192 8192 2856.244183006382 8192 8192 0 0 8083.999223755498 8192 8192 8192 8192 8192 5885.79323194333 8192 8192 8192 0 8192 4129.621615919912 6092.939837730237 8192 8192 0 8192 8192 8192 1858.400591197888 5913.508670731018 0 0 0 5913.608854138892 16.72461452448431 22.78065262249472 0 8192 8192 8192 7070.908827808304 737.2501238174579 0 84.09042758049506 8192 0 8192 876.4199835460893 4780.997657649062 7094.664586556205 8192 0 8192 714.9280265905499 0 602.4613132883554 201.3989429513258 0 0 146.0790954849719 787.4448145927594 3934.798435333103 0 0 0 0 0 0 16.72461452448431 26.6317849489397 30.45886511660471 1:0.73913 2:0.333333 
-0 -0 -0 -0 -8192 0 0 8192 -0 3393.475242962197 5314.285634616 0 0 0 8192 0 6799.615082397699 0 0 8192 0 5064.974782169532 8192 8192 8192 8192 8192 2804.345615551463 8192 0 8192 8192 0 0 3248.019516998825 8192 8192 8192 8192 8192 8192 8192 8192 8192 0 8192 0 0 4374.633670608383 8192 0 8192 7516.503524890296 8192 8192 0 4614.785767359029 0 0 0 0 0 0 8192 8192 1686.985804376438 0 6556.499706989278 0 0 0 305.7126252171138 0 3619.293908122901 0 738.1184104884964 8192 0 8192 0 0 0 58.66262918828261 0 0 0 0 0 0 0 0 0 0 0 0 0 0 1:0.217391 2:0.666667 
-440.0463325425025 -1058.499432176654 -1130.38648908796 -1881.486598631811 -8192 -8192 7022.739941847142 2283.958692289602 5956.096511760909 8192 2387.889172059231 57.34601685537039 0 0 8192 0 1289.619221386321 369.5104165132291 8192 8192 714.9280265905162 8192 8192 4497.380393832797 8192 8192 1608.455321500039 0 8192 5455.986233677554 3995.468536615511 177.2049149599654 1881.486598631747 677.6209055293025 683.4807502147129 8192 8192 108.3043939583705 491.3935020455356 571.772040555733 57.09966650176494 4972.529881768342 8192 0 86.75821056060894 5721.44514109374 8192 6107.283798172437 8192 0 38.25750340908578 0 797.104064648236 92.15152569888127 25.32261328214973 2854.173596890645 1079.128835145085 862.2781662160188 5010.311226418091 2464.120038558135 1854.77270578615 1235.52959513499 4232.395560039401 8192 8192 2530.050696377407 489.5898657676917 240.3288628741288 714.9280265905162 905.9950318608921 0 905.9950318608921 0 79.05874136349969 0.4915180426829424 0 0 71.29653742201968 0 0 36.72264114187409 1889.736979372495 0 219.4833507069736 209.4873824715618 0 1008.094343378268 144.2389982111717 0 1152.425309550327 1254.422263507789 1374.2329787121 1696.050690711767 1920.919128993967 1854.77270578615 617.202253650705 0 1:-0.130435 2:-0.666667 
-0 -0 -0 -0 -0 -2557.3111330017 1169.260058152857 6184.029258803199 8192 8192 5853.088145746384 0 0 0 8192 5529.63883681257 0 0 4654.284583436098 8192 0 5045.974873962687 5930.564476325959 4846.51752153382 8192 8192 7717.45134461065 0 8192 0 8192 0 0 0 0 8192 8192 0 0 0 0 3510.899556316619 8192 6540.8554942846 0 8192 6438.201695553787 1773.591532037096 8192 167.4828098261245 0 0 0 2698.339610052176 0 0 0 0 0 3078.371382607802 0 0 0 367.658274812429 3677.920469529217 6815.769390849266 0 0 0 0 8192 0 3654.270658726389 0 0 0 0 0 8192 0 0 0 0 0 0 0 0 0 6894.391565753065 0 0 0 0 0 0 0 0 1:0.478261 2:-0.666667 
-0 -0 -0 -0 -0 -0 0 0 0 0 0 0 1066.957259895371 2134.588359161423 2830.867733798878 8192 0 0 0 8192 0 0 0 0 0 0 0 0 6619.314128169101 0 1822.811253229087 0 0 0 0 0 1641.597744044921 0 0 0 0 0 1082.885372853678 8192 0 0 0 311.1246697904645 0 0 0 1066.957259895371 3416.816604521719 8192 0 8192 0 0 0 3601.184507316685 6337.227294213849 6956.47040486501 0 0 0 0 0 0 0 0 60.22675592834894 0 8192 0 0 0 0 0 4144.209354672388 0 0 5663.819134120663 0 0 0 1066.957259895371 0 0 887.2794585428953 117.5575732060865 253.2722220782093 442.4313697454874 1106.771012133971 1707.803079530721 6337.227294213849 7574.797746349294 8192 1:0.913043 2:-1 
-0 -0 -0 -0 -0 -0 0 8192 2541.926454476798 2654.202566155848 0 8181.177989801649 7125.042740104629 6057.411640838577 8192 8192 0 0 0 8192 0 0 0 0 3616.553923160288 7511.729796142594 8192 1079.059428865449 8192 0 8192 0 0 0 0 861.7980814169247 8192 180.2611924526151 0 583.3010927566801 71.77474027104991 0 8192 8192 0 2755.67810417817 0 8192 7350.633283053484 8192 0 7125.042740104629 4966.25560196097 8192 47.31314260557333 6990.704725312068 0 0 0 0 0 0 0 0 0 0 665.1755339609777 0 0 0 8192 0 8192 0 1152.027270169174 127.5397468546885 124.743230181272 0 8192 65.58108699731065 0 1175.146614995867 43.64588417092879 0 0 7125.042740104629 144.3072755908279 1008.639769344275 8192 0 0 0 0 0 0 0 0 1:0.565217 2:-0.666667 
-337.0245577434118 -677.6209055293103 -723.6861486694639 -1058.499432176687 -8091.323191445895 -8192 -8192 8192 4232.395560040363 2387.559823881423 1129.093242637211 437.9363688275437 265.0010424893382 209.4873824715622 8192 568.2465256517203 920.0258079602409 283.076578336734 8192 8192 552.0092126476492 8192 8192 5638.632050862078 8192 8192 1507.322797018133 246.1619660849613 8192 4496.3949924674 8192 169.1363736273669 1058.499432176656 470.7279818186919 542.6427527395026 8192 8192 237.6770210549561 458.6884463121875 1152.518788211857 128.6856419744279 5367.532863993171 8192 1066.204295807048 79.88199500059517 8192 8192 8192 8192 636.998802923536 36.7227215220351 420.7418686657042 621.0904516685594 737.2377859693407 72.50121431596415 623.0327226370755 905.9950318608921 598.5643542658282 2184.827601615151 623.0327226370755 215.6121934920064 177.3977625986 1881.486598631827 8192 8192 5638.632050862078 1138.394622575758 204.1146277437621 552.0092126476492 714.9280265905314 3911.375480691727 714.9280265905314 2251.195235027381 74.66207747145387 360.1015292971626 86.75821056060896 92.52901048234217 69.84657016415419 1269.504600621345 45.15369336684986 35.16528329728189 738.4205444323538 33.60632015832445 177.2136996536384 169.7806652701458 265.0010424893382 1152.518788211857 405.8174969902526 933.8170994793231 1079.128835145044 1152.518788211857 1079.128835145044 714.9280265905314 552.0092126476492 215.6121934920064 148.0921890033454 107.1711573594982 1:-0.0434783 2:-0.666667 
-0 -442.1768185008513 -442.0924805056952 -0 -8192 -8192 -8192 -7971.643443071202 8192 8192 5097.639864477962 3020.071807893655 1818.591881329055 908.733352479243 8192 4580.928430260413 0 207.8969350545002 8192 8192 0 8192 8192 8192 8192 8192 8192 841.4892579522782 8192 2708.990921566691 8192 0 413.4415349530658 218.2809776161903 8192 8192 8192 1731.581732467839 8192 8192 0 8192 8192 8192 0 8192 8192 8192 8192 3704.13219901811 0 1415.158001627046 0 2818.032150114244 0 5837.509441982133 3980.241226463569 440.1142020692924 0 4835.615630889981 256.0845154606218 128.264138657031 1058.002757463748 8192 8192 8192 8192 4334.065525710459 795.7849537596978 1562.805732958863 8192 3159.72655616345 8192 0 5879.886544314624 0 0 0 6093.454645465904 0 0 4345.077506571921 0 0 110.5484220818515 1818.591881329055 5368.837935994749 3700.595112840063 5322.411356432273 905.9950318608732 1079.128835145086 1151.345104459788 896.0406510449816 767.6264638812037 256.0845154606218 0.5037037313352997 0 1:0.0434783 2:-0.666667 
-0 -0 -0 -0 -2543.445845198154 -3501.9869399518 -8192 -0 8191.999999999998 8192 2076.865696282914 4930.491775311265 6373.408118670944 7283.266647520756 8192 8192 0 0 0 8192 0 7545.497956094986 8192 8192 8192 8192 8192 8192 8192 4166.622370231701 8192 0 0 0 0 8192 8192 1959.698532404276 971.7123131470978 8192 0 782.9181223297338 8192 8192 0 8192 4663.18869934608 6672.102380660956 8192 8192 0 8192 8192 8192 0 8192 0 0 0 4958.897537603972 896.2058792184376 1024.220440448817 0 2276.675070233629 3153.429657179891 6785.012778644555 3806.467967398225 0 0 0 8192 0 8192 0 672.947205422741 0 44.67069396447199 0 8192 0 0 5433.945301935572 0 0 0 6373.408118670944 0 1227.866823668665 8192 0 0 0.6067459664845408 256.0211443727741 383.7820716887505 896.2058792184376 1152.071174320158 905.995031860921 1:0.826087 2:-0.666667 
-0 -0 -0 -0 -3553.551006784134 -8192 -275.9879510927997 -0 8192 0 1701.208368735581 0 0 0 8192 8192 5640.472845836117 0 0 8192 0 8192 8192 8192 8192 8192 8192 8192 8192 0 8192 7931.683460337645 0 0 8192 8192 8192 8192 8192 8192 7987.380244997539 8192 8192 8192 0 8192 0 0 4212.94295125619 8192 0 8192 1610.460508804881 7418.745717031789 4555.315256641127 0 941.6668278077432 0 0 0 0 0 0 8192 8192 8192 0 95.17314829889824 0 0 6968.994556184358 0 6841.281696871592 0 0 2135.525164561576 8192 126.0606667616067 8192 207.5140373008671 0 0 91.80017885664253 0 0 0 284.3813224361668 0 0 0 0 0 0 0 0 0 0 1:0.652174 
-0 -85.54225991200416 -85.59549648144723 -821.0999038096953 -8192 -8192 -0 -220.356556928798 0 8192 0 0 0 0 8192 0 8192 219.1851846868468 1884.617552275343 8192 0 8192 8192 8192 8192 8192 8192 4625.507929728678 8192 8192 8192 8192 1287.030392093099 791.152901501097 8192 8192 8192 8192 8192 8192 611.7473449397253 8192 8192 7735.214386929006 102.5044391464763 8192 4893.233603058139 5794.15724816309 8192 1841.263798149328 0 0 0 0 0 0 5048.773220211469 0 0 0 0 0 128.0047837463905 8192 8192 8192 8192 5425.718822098684 605.7491330765034 1064.368113655143 5116.175197925474 8192 0 3255.155388145169 8192 0 0 2040.441587206022 0 0 0 0 0 0 46.9111734037397 0 2538.780741569087 8192 0 0 0 0 0 0 0 0 0 1:-0.304348 2:0.333333 
-1386.873231287806 -0 -0 -0 -718.3176002270074 -8192 -0 -0 0 5203.90246356529 0 1226.947295338176 0 0 8192 0 8192 0 8192 8192 3336.247206055374 8192 8192 8192 8192 8192 8192 0 8192 8192 8192 8192 0 0 8192 8192 8192 8192 8192 5635.502051641216 8192 8192 0 8192 400.3341481134586 8192 8192 3917.74037117595 8192 8192 288.0159304294386 4031.82845484898 3467.457473834427 8192 3776.009433356604 0 0 0 4412.403907412042 0 0 0 0 5142.76273931483 2286.513409703635 8192 8192 0 0 0 0 8192 1560.816534449954 8192 8192 0 800.5004059098562 3732.81710244383 4295.655135697349 0 256.0492898452292 0 0 677.6209055293139 0 0 0 8192 0 0 0 0 0 0 0 0 0 1:-0.391304 2:0.666667 
-0 -0 -0 -0 -2935.243286618599 -8192 -0 -0 0 2533.172600112824 7508.286070503543 7206.489121456896 0 0 8192 25.28092947916132 8192 0 0 8192 0 4153.122812034605 8192 8192 8192 8192 8192 1949.706093316937 8192 218.796961484522 8192 8192 0 0 1350.770653829927 5877.565627208308 8192 8192 2925.939004011289 0 8192 8192 4781.383977991433 8192 0 4603.150182169115 967.1660318497914 0 8192 8192 48.90630581141031 8192 8192 8192 8192 5895.594270181477 6413.318725517218 0 0 6589.486831506044 0 0 0 8192 8192 8192 7080.93979343501 6529.042503891965 0 0 0 818.0944200604992 2150.746018938462 8164.185056492148 1639.166250262632 498.5852754609064 8192 2292.680643588551 8192 54.44991777894872 10.33579438010025 0 60.57568717039051 0 0 0 0 3263.538063491277 0 0 0 0 0 0 0 0 0 1:-0.217391 2:1 
-215.6094225900575 -345.9719134720435 -369.5307502476784 -470.7279818186996 -3404.129152557185 -8192 -8192 -4232.395560040363 -8192 8192 7333.871138089367 5268.544408218938 0 0 8192 4250.195330762962 533.6815938615764 181.3873766316034 8192 8192 334.4206665603603 8192 8192 8192 8192 8192 8192 227.2549608637723 8192 7245.044657404014 8192 81.4614054092097 470.727981818697 265.0010424893354 27.75662799665409 8192 8192 358.9068206042137 570.3353671535763 1088.480100343717 0 8192 8192 8192 67.34429967165228 8192 8192 8192 8192 270.7821733917995 27.821032172963 1838.866983351281 0 7869.920953747651 0 3406.783164396776 551.9910508652985 337.0873794666264 762.1097743443219 1130.204915128366 0 0 677.6209055293177 4429.762700305286 8192 8192 8192 152.7143840021461 334.4206665603603 426.955490520433 8192 426.9554905204194 6200.075697808684 0 4185.949507004285 38.09874589758272 3.2362283298826 42.34974128802902 8192 0 28.3575414696032 417.2600618263935 0 122.4948700363769 118.0562936275618 0 878.3712293750999 4613.112546926471 0 714.9280265905009 905.9950318609238 1079.128835145077 767.7944712578091 383.8992403634047 0 0 0 1:0.130435 2:-0.666667 
-0 -0 -0 -0 -0 -0 -8192 -0 -8192 8192 0 1052.698555174558 2766.265556394508 1432.715561188561 8192 8192 0 0 0 8192 0 0 771.2664339140769 907.7645534074954 8192 8192 8192 8192 8192 0 8192 0 0 0 0 4354.648950504739 8192 0 0 8192 0 155.2063910557846 8192 8192 0 8192 1035.13611053966 7770.457446787367 8192 8192 0 8192 6820.12788027761 8192 0 8192 0 0 0 8192 714.9280265905179 552.0092126476457 0 0 0 2889.366068805639 0 0 0 0 8192 0 8192 0 0 0 0 0 8192 0 0 8192 0 0 0 2766.265556394508 0 0 8192 0 0 0 384.6510594234654 768.6413424886703 714.9280265905179 407.3935016857739 230.5781437659108 1:0.391304 2:-0.666667 
-0 -0 -0 -0 -1534.574433512109 -0 -306.0229662377103 -0 -8192 92.81997358567108 1497.824629939533 3169.365109570945 668.5578166326097 502.4032033091644 8192 8192 0 0 1366.470894454802 8192 0 2958.224771073593 5307.721264406022 8192 1166.733400641234 8192 8192 8192 8192 4066.539315893236 8192 236.766234256708 -0 -0 347.4209734448437 5093.216542463029 5233.517740936897 353.4805591941298 1242.231556791473 8192 1152.518788211857 29.02737628147519 8192 8192 0 1572.977163910348 5040.394587057219 830.3472680516907 2970.32289965265 8192 6.116049101532396 8192 5040.431474470839 4587.190790297493 250.2568019093079 2542.20609490492 0 0 0 851.2438445569907 0 0 0 0 0 7982.642549096673 5725.780126648534 0 0 0 8192 -0 8192 93.89689775404781 4101.408035414217 526.8673009294031 711.6917982606489 31.43667996853368 6203.878851208317 288.5012982993139 3.836658438897194 705.4817580704431 128.5009765550203 0 0 668.5578166326097 55.49333634546896 3578.887453073531 0 0 0 0 0 0 0 22.84024220048718 51.64064574878509 1:1 
-0 -108.9532812764622 -179.269644789587 -0 -8192 -8192 -8192 -2132.604482789348 -8192 -8192 6030.892844566352 0 0 0 8192 226.1569492872593 4466.00905211753 128.513328864004 3079.318829398649 8192 0 8192 8192 8192 8192 8192 8192 5058.997291208169 8192 8192 8192 4141.255762335925 255.602147554817 133.4653195150344 8192 8192 8192 8061.97578771943 8192 8192 930.7895246977965 8192 8192 6826.988020899716 0 8192 7708.105252737631 6634.983828186771 8192 903.1726475054351 0 0 0 47.87875089976924 0 335.487672950588 3274.474929044464 157.6297856581617 0 0 0 0 470.2305639387072 8192 8192 8192 8192 2842.507982671281 418.6178079805861 698.9090598409855 8192 0 7437.26543233435 0 6935.663013549312 0 1460.768649133506 0 8192 0 0 0 0 0 32.547180389318 0 5171.636631007996 5369.622597721897 2204.619090977511 299.5466819284512 401.6373670097281 553.8012512081676 1151.888267276209 876.355545955284 0 0 0 1:0.217391 2:-0.666667 
-1059.028955886382 -228.9393643709955 -157.8492182456362 -821.1661743305966 -8192 -8192 -2570.821418461431 -254.9553410920755 -8192 -373.1491563067988 566.5503215151827 1694.308143444092 0 0 8192 0 8192 208.35963065431 8192 8192 2676.210520183658 8192 8192 8192 8192 8192 8192 0 8192 8192 8192 8192 1086.497020841403 727.7252717673581 8192 8192 8192 8192 8192 8192 8192 8192 8192 8192 470.7279818186838 8192 8192 5893.867915779085 8192 8192 86.68815658265727 3487.593758907707 1728.172381637698 8192 4641.105042390913 0 8192 45.31317442634434 3380.878915565569 0 0 0 128.003398270878 8192 8192 8192 8192 6135.254725431913 438.5533098154758 634.7288649950352 2608.679685641135 8192 486.2914916050077 5506.366116812563 8192 0 2445.472926633542 4640.381861575213 2758.528740319377 0 78.81222363943574 0 0 440.3980883454131 68.39571621150824 0 3020.363368992006 8192 0 21.30000257433576 14.91966638387104 5.572445834210063 0 0 0 0 0 1:-0.304348 2:0.333333 
-0 -0 -0 -0 -5930.037416115974 -8192 -83.3811476944276 -0 -8192 -1139.44038010789 8167.958334252237 8192 154.7887605985871 91.83998144191841 8192 280.8447957380217 8192 0 0 8192 0 8192 8192 8192 8192 8192 8192 5340.338561999356 8192 3277.319718919973 8192 8192 0 0 7111.424832984112 8192 8192 8192 8192 7467.107380857294 8192 8192 6569.125523874218 8192 0 8192 4536.515030714861 4521.692064973503 8192 8192 109.0569390673673 8192 8192 8192 8192 8129.84178161682 4917.525070955537 0 0 8191.999999999998 0 0 0 8192 8192 8192 8192 5836.638901247129 0 0 2785.133998099556 1888.847198019401 4847.822450080514 8192 3194.310486475574 261.564824580683 8192 3551.618138424787 8192 104.2523058527033 83.11991115131825 3269.231164678149 110.1525026200767 0 0 154.7887605985871 0 4616.08992801973 531.6903950303141 0 0 0 0 0 0 0 0 1:-0.0434783 2:1 
-0 -0 -0 -0 -5095.813604854268 -7349.009670903197 -8192 -0 -7737.075063678112 -6772.230437170982 1618.598499666233 5670.532509830078 1026.754750274417 659.5763826935978 8192 8192 0 0 3688.15740347578 8192 0 8192 8192 7460.106937989051 8192 8192 8192 0 8192 1447.477469711691 8192 0 0 0 1232.186643009951 8192 8192 0 0 5763.473770074627 0 2377.289711614936 8192 8192 0 8192 5336.939778394904 7525.456191060644 8192 8192 0 6762.063502876378 7661.226680972824 8192 0 8192 0 63.74151238589447 0 8192 1881.486598631827 1058.499432176656 0 3834.678179331153 8163.748669719931 4499.275722524714 3481.114401540874 0 0 0 8192 0 8192 0 0 167.1314149201359 0 0 0 38.09851402699083 0 8192 13.64896913395097 0 27.13331963261791 1026.754750274417 0 0 8192 277.8867758480185 445.4504478108257 787.2058551863141 4232.057222670229 7315.64445404472 1881.486598631827 677.6209055293025 345.9719134720475 1:0.391304 2:-1 
-0 -197.9770121800281 -212.0520069097289 -253.9786065276747 -8192 -8192 -8192 -1071.658098696602 -8192 -8192 -8192 7348.979479622849 1058.499432176626 677.6209055292977 8192 7135.722710672919 6478.558962301456 121.6874856575498 8192 8192 0 8192 8192 8192 8192 8192 8192 5095.169112073411 8192 8192 8192 4663.077839657857 186.3419102617461 139.7593012465821 8192 8192 8192 8103.092912169408 8192 8192 3649.434072638322 8192 8192 8192 19.1160673491062 8192 8192 8192 8192 8192 0 8192 8192 8192 1746.214484622126 7883.056314265486 1627.169890441988 215.6105217329844 61.87179407100201 7883.293479011498 552.0092126476393 426.9554905204317 336.3290967966988 8192 8192 8192 8192 3468.248410546451 260.7182477882163 359.8318847724714 8192 0 8192 833.0048712854014 7526.595269812295 178.4406944090268 3045.186029207298 314.8789453347712 8192 44.5364039070701 0 7919.764506988709 18.04966328796267 19.34550699810609 76.128035366923 1058.499432176626 1461.306760189459 6528.71968066074 4936.907170148049 426.9554905204321 552.0092126476492 714.9280265904959 1079.128835145006 1152.518788211832 552.0092126476393 334.4206665603566 215.6121934920037 1:0.304348 2:-0.666667 
-351.907611139419 -25.83245132515152 -11.86518094929587 -29.01010897327341 -8192 -8192 -48.97731780560896 -57.43514394060929 -8192 -639.6957680288995 -8192 8124.422488606152 0 0 8192 0 8192 59.2701019419517 2361.182945614319 8192 488.8384161221344 8192 8192 8192 8192 8192 8192 5327.543621718211 8192 6387.732097700318 8192 8192 178.4680092053089 140.8716289900901 8192 8192 8192 8192 8192 8192 8192 8192 8192 8192 162.4721914559486 8192 8192 6621.850295457394 8192 8192 209.4873824715622 8192 8192 8192 8192 6851.010630748774 8192 0 439.6751275558116 6850.966154684975 0 0 33.08434864090855 8192 8192 8192 8192 8192 105.8725437269562 137.1038019726037 3078.476152356329 4232.395560040363 6460.269035805789 8192 5617.771508916837 186.3708735046517 8192 1642.258567367375 8192 81.5374096469362 169.7806652701458 1638.382834928349 89.57161330313571 204.5145955661209 16.80127176154406 0 454.5818245180624 7228.564704288735 0 0 0 0 0 0 0 0 0 1:-0.130435 2:1 
-0 -83.41040449069303 -108.4452771989408 -10.0610184558635 -8192 -8192 -8192 -372.5315202194126 -8192 -8192 -7364.840653274169 -7281.401968229003 8192 4232.395560040905 8192 8192 5518.760343410835 81.22137564132736 6473.33919088207 8192 0 8192 8192 8192 8192 8192 8192 6879.4861852226 8192 8192 8192 3662.990397844161 142.1268588960825 107.2530222404983 7818.879743670388 8192 8192 6566.484287336113 8192 8192 3279.181449694087 8192 8192 8192 2.44756132121826 8192 8192 8192 8192 8192 0 8192 8192 8192 643.3450135428325 8192 2705.518016483685 107.3876108770915 79.39830853465192 8192 1079.128835145042 905.9950318609058 169.2807516314198 8192 8192 8192 8192 3742.748146688557 160.1489833810633 209.025199782324 8192 168.2482360458718 8192 1020.061750605688 7145.954115573749 236.3723795175211 2856.862842128756 761.5751385022634 8192 61.04265270822702 0 8192 30.97449588415869 10.06806043463008 47.73775763389432 8192 575.9991250253274 6410.789264464609 8192 212.4361524438268 266.2712036566797 334.4206665603647 552.0092126476403 714.9280265905445 1079.128835145042 714.9280265905123 426.9554905204325 1:0.565217 2:-0.666667 
-689.1054735423468 -66.69503317201419 -41.45067702530223 -327.0958047243031 -8192 -8192 -46.52400665701956 -65.40484860813113 -8192 -1298.608072964443 -8192 -8192 0 0 8192 1255.174931119497 8192 68.29220644422934 2448.386256361251 8192 1098.940435795687 8192 8192 8192 8192 8192 8192 5686.441395183377 8192 6625.259058146598 8192 8192 189.4987272381995 156.203103724266 8145.863802807519 8192 8192 8192 8192 6644.330952625291 8192 8192 6354.881633684066 8192 263.9710878300011 8192 8192 6620.338693306349 8192 8192 345.9719134720475 8192 8192 8192 8192 6882.029813373943 8192 20.74279270262505 778.4927403434169 6955.751047867741 0 0 46.08332735340792 8192 8192 8192 8192 8192 103.3918999312661 123.1609608419484 2551.888500132171 8192 6211.958439129783 8192 4289.188707788816 193.4092765735476 8192 4119.570263347397 8192 66.63837534124208 265.0010424893382 0 65.31611686071302 327.0686196215364 27.43326311837954 0 254.076797258632 7005.863947968152 45.81370084067716 3.468003066873231 0 0 0 0 0 0 0 1:-0.304348 2:1 
-80.84470229949295 -100.6667186684351 -107.4928641105684 -118.0562936275615 -551.9910508653023 -512.1450556530947 -8192 -265.0010424893382 -8192 -3434.823373027117 -1181.543510873004 -1058.499432176626 -8192 8192 8192 8192 180.190659997553 71.12425493670672 722.2050066122695 8192 107.1711573594982 798.9146327096165 1166.656969947124 1409.392694428135 2265.320297475682 4897.954946895893 8192 1152.518788211857 8192 1607.11241818403 8192 120.3452861723418 118.0562936275614 86.86826762765749 156.9687872444135 1672.22053381731 2386.061707642896 226.8785633147617 285.6297818198149 1151.274817072478 128.6780013673855 478.755748158459 8192 8192 40.68722868658845 2100.718487845019 1216.10797480954 8192 8192 8192 24.98844353357691 8192 8192 8192 72.53261466461386 8192 148.0921890033454 107.1711573594982 152.111195897257 2912.738607663483 1152.518788211857 1079.128835145044 140.4009874890163 496.9904297300107 524.717538058297 4356.966994627993 905.9950318608921 77.52874313827017 107.1711573594982 125.251709618658 8192 125.251709618658 8192 49.66892180682525 1079.059428865449 128.5009765550203 127.5397468546885 48.0374284544442 8192 67.9135031857447 23.74479311145204 4782.51573289607 44.65861897321369 54.21664021531933 52.74858831666981 8192 215.6094225900557 905.9950318608921 8192 177.3958868622786 215.6121934920064 266.2712036566785 426.9554905204225 552.0092126476492 1152.518788211857 905.9950318608921 552.0092126476492 1:0.652174 2:-0.666667 
-71.12455645759596 -86.8682676276575 -92.75258519689265 -100.6667186684346 -426.9554905204225 -392.5059352627466 -8192 -209.4873824715622 -8192 -1935.118764497726 -751.4163641355161 -677.6209055292977 -4232.395560040905 -8192 8192 8192 157.3539145112928 63.03669359383806 551.9910508653023 8192 92.65392049659255 598.8433676345104 852.0284643642318 980.0365503694242 1275.287470124772 2521.510331717174 5630.97965992748 1152.518788211857 8192 1453.690804256928 8192 114.6862080279996 100.6667186684347 75.73680028891296 140.4239647355784 1118.014250185083 1344.934865269011 202.5597759157753 270.1514580616073 1152.411675661667 128.6333420632003 351.9080101416436 8192 8192 37.60476615278407 1192.756638696909 907.0829869278107 8192 8192 8192 23.74482671750431 8192 8192 8192 72.50121431596415 8192 125.251709618658 92.65392049659255 127.4735189991363 1550.291145347242 1079.128835145044 1152.518788211857 118.0562936275614 402.9347732895623 398.9499325068381 3038.980164495289 714.9280265905314 70.68387842419742 92.65392049659255 107.1711573594982 8192 107.1711573594982 8192 47.44625331553224 905.9950318608921 127.5397468546885 128.5009765550203 45.15369336684986 8192 69.84657016415419 22.56379026986898 2614.108373599427 45.47989796499256 48.65479394322477 47.39380105989898 8192 177.3977625986 714.9280265905314 8192 148.0921890033454 177.3977625986 215.6121934920064 334.4206665603572 426.9554905204225 1079.128835145044 1079.128835145044 714.9280265905314 1:0.73913 2:-0.666667 
-0 -0 -0 -0 -0 -0 -8192 -0 -1923.681441114803 -632.9439680513264 -0 -0 -0 -0 -0 8192 0 0 0 8192 0 0 0 3691.565529805821 1192.305931000352 8192 8192 8192 8192 1589.020669186308 5534.521087835389 0 0 0 0 0 4161.452057061242 0 0 5510.26961409428 0 0 8192 8192 0 0 0 1219.990725765514 866.8965284721894 8182.31274005901 0 8192 8192 8192 0 8165.760488733371 0 0 0 0 1305.284647597375 1254.887830600729 0 0 0 0 825.8714983135137 0 0 0 6549.883280846276 0 8192 0 0 0 0 0 8071.599040140677 0 0 6103.101591204541 0 0 0 0 0 0 3880.880925114546 1911.690306713336 1801.776809010479 1711.871600017079 1570.364905710034 1511.470147049642 1305.284647597375 1203.975628735433 1079.128835145021 1:0.913043 2:-0.666667 
-0 -0 -1606.894502177235 -0 -8192 -8192 -4473.982589456292 -3421.861142148935 -8192 -8192 -8192 -6680.274142713384 -3919.999800322509 -715.0444646656235 -359.0044353431065 6080.627834721841 513.9305046908241 0 2442.132718644451 8192 0 8192 8192 8192 8192 8192 8192 8192 8192 6228.381121291754 8192 0 2062.34269392537 0 8192 8192 8192 0 183.9691669780317 8192 0 8192 8192 8192 0 8192 3303.071277575247 618.5289385714839 8192 0 0 0 0 0 0 0 2157.883538266492 3636.667343750803 254.9649957257437 0 0 0 3707.228752990333 8192 8192 8192 7661.249953129866 0 1183.304575952607 1962.320463614373 8192 1708.07902323478 7464.974341623648 0 5095.023565510902 0 0 0 8192 0 0 0 0 0 0 715.4327104151028 4301.927989178545 1216.629202445321 2184.052773893086 0 0 0 0 0 0 0 0 1:0.391304 2:-0.333333 
-0 -0 -0 -0 -0 -0 -0 -0 -0 -4957.907952122857 -0 -0 -0 -0 -0 4227.861240411532 788.9582113838858 0 0 8192 0 79.11377860803255 8192 8192 8192 8192 8192 8192 8192 0 8192 707.5950350873801 0 0 0 8192 8192 7513.24067164215 8192 8192 0 1288.681830496578 8192 8192 0 8022.079985684357 0 0 0 8192 0 8192 0 0 263.3929183878697 0 0 0 0 0 0 0 0 1276.691411251524 0 6775.796710741332 0 0 0 0 0 0 2493.276731692306 0 0 0 3827.247180264201 0 0 0 0 0 0 0 0 0 0 0 0 0 0 0 0 0 0 0 0 1:0.826087 
-0 -0 -0 -0 -1032.289193916984 -1733.951301876633 -0 -0 -2191.420572091024 -0 -0 -0 -0 -0 -0 0 1291.245166081524 0 0 8192 0 8192 8192 8192 8192 8192 8192 2725.796181785617 8192 0 8192 8192 0 0 4692.027092233478 8192 8192 8192 8192 8192 7259.561198137648 8192 8192 8192 0 0 0 0 0 2355.208447233656 0 5210.798087532288 2039.997608109008 0 8192 0 0 0 0 0 0 0 0 6513.866674711705 2569.208651779907 0 0 1891.583518648109 0 0 0 0 0 0 0 8192 8192 0 0 544.7747182414931 0 0 183.581514505056 0 0 0 0 0 0 0 0 0 0 0 0 0 0 1:0.652174 2:0.333333 
-7308.035595285387 -0 -0 -1257.908015188152 -0 -8192 -0 -0 -8192 -0 -6658.685798111516 -4176.481143865084 -6970.566068957215 -0 -0 0 8192 445.4985087921552 6146.600551006228 8192 8192 1811.87610276028 8192 8192 8192 8192 6827.443793894798 0 8192 3935.715532676577 5558.014690887853 8192 0 0 2040.556891060257 4015.764690243045 8192 8192 1972.936815391678 0 8192 8192 0 7797.951378802512 1091.49346218413 8192 7109.707557954995 2316.077277711185 8192 8192 470.2282367020829 6889.198414854302 5415.538478098998 8192 8192 5507.670173772484 1812.716687491834 0 4431.357643392503 6343.5356053992 0 0 0 4526.319621803598 0 8192 8192 0 0 0 0 5358.356565520267 3141.233512712518 8192 7864.583552398155 0 0 4591.871497907515 4679.362362093607 0 341.7406069781986 4748.08481552992 0 708.8745628188976 1266.152387938834 0 0 8192 0 0 0 0 0 0 0 0 0 1:-0.391304 2:1 
-0 -0 -0 -0 -1475.991030766241 -8192 -0 -0 -937.2097894239021 -0 -64.20739979360207 -2895.130735979407 -529.7715213683831 -0 -0 0 4022.008340813537 0 0 8192 0 0 8192 8192 8192 8192 8192 0 8192 0 8192 8192 0 0 0 8192 8192 8192 6073.341608962035 3515.167473682053 8192 2088.160089903226 8192 8192 0 0 0 0 3243.562695586692 287.5849890101356 0 0 8192 8192 8192 0 3614.869867080014 0 0 524.4637568210208 0 0 0 8186.138447526856 8192 2003.229702431529 0 5661.230269145431 0 0 0 0 0 3280.963099908152 0 0 7695.804290520266 0 6763.098291869747 7.586741373294271 0 0 73.63346132607194 0 0 0 0 0 0 0 0 0 0 0 0 0 0 1:0.0434783 2:1 
-0 -0 -0 -0 -3762.347027530057 -4376.695748442264 -8192 -1521.322826463353 -8192 -8192 -7289.55685172018 -1558.400900807485 -4507.758766213293 -6840.332160930981 -7515.627745683037 8192 0 0 2236.948840152618 8192 0 7387.403057794649 7197.983675725731 8192 8192 8192 8192 11.81757496024904 8192 0 8192 0 0 0 0 5457.931017626789 8192 0 0 8192 0 0 8192 8192 0 4240.873861403091 6474.830571066987 8192 8192 0 0 4492.680651951055 184.918615410477 8192 0 8192 0 0 0 8039.194448720534 0 0 0 649.8029549723193 4949.712082082785 4079.725654119394 0 0 0 0 8192 0 8192 0 0 0 0 0 8192 0 0 0 0 0 0 6839.996717777273 0 1724.568715793598 8192 0 0 0 0 0 0 0 0 1:0.826087 2:-0.666667 
-0 -5596.574106400703 -3489.893997675958 -5907.406447083642 -8192 -8192 -0 -0 -8192 -205.4861746894928 -6540.446200504899 -0 -0 -0 -0 0 8192 2705.278550937607 8192 8192 1954.744747368265 8192 8192 8192 8192 8192 8192 5454.386243254131 8192 8192 8192 8192 7269.872430750177 6899.554444390051 8192 8192 8192 5625.524664521707 8192 8192 4453.053115712205 8192 8192 8192 0 8192 8192 8192 8192 3248.528771149555 0 7863.623526625942 0 3079.325034920507 0 0 7139.067552313259 271.8018457722587 8192 0 0 0 192.8189036893671 5978.781113187367 8192 8192 8192 0 3502.673497829989 3114.887400386052 6569.380130787152 8192 0 0 8192 0 0 3356.972756953526 3394.904546960652 0 0 0 0 0 0 0 1947.822263301867 8192 0 0 0 0 0 0 0 0 0 1:-0.130435 2:0.333333 
-0 -0 -0 -0 -3151.422960153116 -8192 -0 -0 -8192 -0 -0 -0 -0 -0 -0 0 8192 0 0 8192 0 8192 8192 8192 8192 8192 8192 0 8192 0 8192 8192 0 0 8192 8192 8192 8192 8192 5513.67492411379 8192 8192 8192 8192 0 8192 0 0 8192 8192 0 0 0 8192 5940.365614696075 0 0 0 0 0 0 0 0 0 3506.394088682374 8192 8192 4742.627744642014 0 0 0 8192 0 5906.22300164736 0 0 4840.511547402452 0 0 0 0 0 0 0 0 0 0 2425.400390057514 0 0 0 0 0 0 0 0 0 1:-0.130435 2:0.666667 
-8192 -8192 -8192 -8192 -6961.949787633607 -8192 -6548.885144342585 -3248.81603138771 -3139.688197370273 -2395.661905136321 -4023.103749869793 -1073.713076634642 -455.9038431385948 -636.6233744033959 -317.3678189738553 1233.642670199347 8192 8192 8192 8192 8192 8192 8192 4978.757742940475 8192 8192 4401.166707918693 0 8192 8192 4993.789428161143 2490.410092329928 8192 8192 8192 8192 8192 2669.131765664468 8153.75240866826 2753.518351815911 249.4444634355216 4815.158079600192 8192 2052.265018072894 625.3009175364756 8192 8192 4037.403057951828 8192 2310.36505254764 32.00336883048228 119.6993190364164 551.5452983815111 1933.525836919584 0 2710.569337494146 1659.4623548484 8192 8192 1476.80618905925 266.321407872535 176.9535713194372 4291.952343320299 5636.399776546627 8192 4960.16344063978 7896.87854855662 4088.558467564449 3506.021926217403 3114.792135999577 3264.736588366571 7587.113271201959 2620.389827965242 1151.746154004898 3424.392882090941 0 20.43698181308044 243.1557451389552 1667.035758935316 0 27.52733375451427 3090.8441309206 0 8192 6925.847612061166 636.5705718076248 1942.24974751959 2825.401691703571 2127.066300992368 2703.553546607953 2110.147609888275 1664.800930546733 1048.274395448839 828.2582502852999 266.321407872535 101.6286674476004 0 1:-0.913043 2:-1 
-0 -0 -0 -0 -0 -0 -2718.124516304767 -0 -4606.209359739576 -4250.195330762962 -0 -0 -0 -3170.963364518625 -4427.574172557135 -8192 0 0 0 8192 0 0 0 3430.45689588561 192.2748495276918 5292.499623589362 5126.845239365286 8192 8192 0 6423.24009516396 0 0 0 0 717.633951981818 1193.298875812076 0 526.938744389949 8192 142.8238224485777 0 7499.041983615583 8192 0 0 0 0 0 7821.939769504395 0 8192 0 0 0 0 0 0 0 0 0 0 0 0 0 2680.797314043754 0 0 0 0 945.3321911843519 0 5007.343380374983 0 0 259.5777422516136 0 0 0 0 0 0 0 0 0 3170.76218953659 0 0 543.6033964169127 0 0 0 0 0 0 0 521.9126519585773 1:1 2:-0.666667 
-48.08829465811775 -25.66087978998705 -0 -32.83660418218133 -1931.641342666264 -8192 -2811.514320507803 -115.8311071231045 -8192 -8192 -507.0017450252811 -1689.857644588376 -3895.900535555629 -1249.933565761597 -936.8074382154154 -8192 8123.714476340199 40.22564481979847 4027.244502050443 8192 71.94783356580327 8192 8192 8192 8192 8192 8192 8192 8192 7580.286540909383 8192 7716.343294608108 32.86206005969963 20.39109747159912 8192 8192 8192 8192 8192 8192 8192 850.3359595842405 8192 8192 58.44773994116166 8192 6997.640049782832 4942.011797129731 7275.392469986545 8192 49.17654024615804 8192 8192 4719.465261608244 1152.164198210493 2016.37279531929 192.2353302865561 0 0 2548.61641788456 0 0 42.92521933277175 8192 8192 8192 8119.581469494226 454.0871230840594 71.97442278821617 90.4827808784305 7985.579148453459 90.50034212280801 8192 280.480503686257 4872.047169602758 7932.422257748386 8192 148.0921890033456 8192 426.9554905204293 44.72600376955084 878.6994472965095 202.5573303391381 0 9.038342026036126 1249.992239987722 214.1676754879698 4271.806087544104 3981.95015611958 0 0 0 0 0 0 0 0 1:0.565217 2:0.333333 
-72.14955909804868 -131.1823226817063 -209.4873824715623 -158.5120458959516 -2065.827459436602 -2995.771663290512 -8192 -452.4154185286157 -8192 -8192 -8192 -5445.865066084541 -5551.274395563867 -3771.103069719779 -2827.618389227449 -8192 68.28552365980093 62.32799587627488 4164.755497949557 8192 100.7933303363032 5402.608170897856 8192 6060.179608461182 8192 8192 8192 2684.243407032641 8192 4114.149081913844 8192 0 158.5168136839479 110.4641508724884 0 8192 8192 0 1372.862424049446 4087.254540879 0 564.9231577875441 8192 8192 9.395819795407329 8192 6639.685165983146 8192 8192 2126.910915290022 0 5097.147313035935 1500.611961165252 7868.047609894464 0 8192 78.77257947406963 209.4873824715616 345.9719134720487 7361.65185832485 4096.000000000018 2730.01543166584 196.0995561538973 3262.017572801904 1753.858867614644 7742.323160337129 8192 0 100.7709191939707 122.4277555548159 8192 122.5340348035176 8192 0 4009.517972672795 0 0 0 8192 0 0 4151.119840638009 0 76.00244642401341 63.23737258492345 3771.245570475688 261.9777770797399 4048.855983997687 8192 470.7279818186953 677.6209055293202 1058.499432176626 4232.395560040363 8192 4096.000000000018 1364.490558626301 0 1:0.391304 2:-1 
-0 -0 -0 -0 -0 -0 -8192 -0 -0 -0 -0 -0 -0 -0 -0 -3350.131745332721 0 0 0 8192 0 0 0 -0 0 0 0 1609.744097116287 792.4163212057823 0 0 0 0 0 0 0 0 0 0 0 0 0 0 8192 0 0 0 389.0857295245064 0 0 0 0 4004.697202885866 8192 0 7525.717914962978 0 0 0 0 4095.999999999982 5461.984568334159 0 0 0 0 0 0 0 0 7453.088660362186 0 6501.668043097943 0 0 0 0 0 6779.756160104667 0 0 3759.970125956425 0 0 0 0 0 0 3666.446447463508 0 0 0 0 0 4095.999999999982 6827.509441373699 7670.087348041423 1:0.913043 2:-1 
-8192 -8192 -8192 -8076.464017302252 -0 -8192 -0 -0 -0 -0 -0 -0 -0 -0 -0 -0 -0 8192 8192 7733.508982407775 8192 8192 8192 8192 8192 0 0 0 2743.309160722468 8192 0 7045.108465948494 8192 8192 2507.225504867254 2646.506461733906 6594.104058827187 0 8109.423048813475 0 0 0 0 0 2897.023617292731 8192 0 0 5900.750647745328 1175.025925769194 0 0 0 0 0 0 0 0 0 0 0 0 0 0 1136.966847595056 8192 2078.612255313205 5306.930619255262 1947.178251021947 1049.625143633916 664.9781550326939 0 0 0 0 0 0 0 0 0 0 0 0 8192 3663.979248836236 0 0 0 0 0 0 0 0 0 0 0 0 1:-1 2:-0.333333 
-780.7123474717625 -2.099928033343407 -2864.145714015665 -4610.94835786891 -8192 -8192 -531.7692752473262 -409.5407787908497 -8192 -272.5464501435765 -8192 -8192 -8192 -127.2509397606452 -116.2057202365493 -8192 -8192 1573.462054012694 3456.779421736297 8192 1372.804349729885 8192 8192 8192 8192 8192 8192 8192 8192 6401.078130732401 8192 8192 2596.558532596967 3580.40187186787 8192 8192 8192 8192 8192 8192 8192 8192 8192 8192 0 8192 8192 8192 8192 8192 0 8192 7205.733486058274 8192 8192 2564.440774634237 6975.826471042795 2171.374646350907 4748.540786737795 2564.440774634237 64.20781753576895 60.89186753827552 1093.847583214547 8192 8192 8192 8192 2438.176323653674 3157.224609220163 3610.883618578042 8082.300711587386 8192 8192 0 8192 4232.395560040422 8192 1355.395936146443 8192 267.1952798561071 0 0 72.27366470526965 0 217.3340187283159 127.283629148109 3013.569018968939 8192 95.11822431717708 125.6060222375154 113.44461900912 103.4521999833492 88.03130297767969 81.95006858856768 64.20781753576895 57.93072311488213 52.71599022780017 1:0.478261 2:0.333333 
